<?xml version="1.0"?>
<opencv_storage>
<cascade>
  <stageType>BOOST</stageType>
  <featureType>HAAR</featureType>
  <height>24</height>
  <width>24</width>
  <stageParams>
    <boostType>GAB</boostType>
    <minHitRate>9.9500000476837158e-01</minHitRate>
    <maxFalseAlarm>5.0000000000000000e-01</maxFalseAlarm>
    <weightTrimRate>9.4999999999999996e-01</weightTrimRate>
    <maxDepth>1</maxDepth>
    <maxWeakCount>100</maxWeakCount></stageParams>
  <featureParams>
    <maxCatCount>0</maxCatCount>
    <featSize>1</featSize>
    <mode>BASIC</mode></featureParams>
  <stageNum>18</stageNum>
  <stages>
    <!-- stage 0 -->
    <_>
      <maxWeakCount>4</maxWeakCount>
      <stageThreshold>-9.5824205875396729e-01</stageThreshold>
      <weakClassifiers>
        <_>
          <internalNodes>
            0 -1 68 -3.7498362362384796e-03</internalNodes>
          <leafValues>
            4.5312500000000000e-01 -7.3170733451843262e-01</leafValues></_>
        <_>
          <internalNodes>
            0 -1 54 -4.8155855387449265e-02</internalNodes>
          <leafValues>
            5.2492576837539673e-01 -5.6403088569641113e-01</leafValues></_>
        <_>
          <internalNodes>
            0 -1 23 5.1780957728624344e-03</internalNodes>
          <leafValues>
            -3.5206332802772522e-01 8.9005756378173828e-01</leafValues></_>
        <_>
          <internalNodes>
            0 -1 92 6.6993536893278360e-04</internalNodes>
          <leafValues>
            -3.7180957198143005e-01 6.8955945968627930e-01</leafValues></_></weakClassifiers></_>
    <!-- stage 1 -->
    <_>
      <maxWeakCount>6</maxWeakCount>
      <stageThreshold>-8.8953518867492676e-01</stageThreshold>
      <weakClassifiers>
        <_>
          <internalNodes>
            0 -1 11 -9.1274015605449677e-02</internalNodes>
          <leafValues>
            3.5779815912246704e-01 -6.5501165390014648e-01</leafValues></_>
        <_>
          <internalNodes>
            0 -1 62 -8.2780346274375916e-03</internalNodes>
          <leafValues>
            6.2689781188964844e-01 -3.7560614943504333e-01</leafValues></_>
        <_>
          <internalNodes>
            0 -1 34 2.2714859806001186e-03</internalNodes>
          <leafValues>
            2.3903745412826538e-01 -8.5926061868667603e-01</leafValues></_>
        <_>
          <internalNodes>
            0 -1 33 1.4940861146897078e-03</internalNodes>
          <leafValues>
            -4.2089527845382690e-01 4.1839417815208435e-01</leafValues></_>
        <_>
          <internalNodes>
            0 -1 1 2.1500894799828529e-03</internalNodes>
          <leafValues>
            3.2678797841072083e-01 -6.9023150205612183e-01</leafValues></_>
        <_>
          <internalNodes>
            0 -1 47 1.6567576676607132e-02</internalNodes>
          <leafValues>
            1.7388249933719635e-01 -9.1584289073944092e-01</leafValues></_></weakClassifiers></_>
    <!-- stage 2 -->
    <_>
      <maxWeakCount>7</maxWeakCount>
      <stageThreshold>-1.1528338193893433e+00</stageThreshold>
      <weakClassifiers>
        <_>
          <internalNodes>
            0 -1 66 -1.3396888971328735e-02</internalNodes>
          <leafValues>
            7.6470589637756348e-01 -5.7700204849243164e-01</leafValues></_>
        <_>
          <internalNodes>
            0 -1 67 2.1113806869834661e-03</internalNodes>
          <leafValues>
            1.1114610731601715e-01 -8.8314837217330933e-01</leafValues></_>
        <_>
          <internalNodes>
            0 -1 50 -4.2102843523025513e-02</internalNodes>
          <leafValues>
            -9.3593889474868774e-01 1.7730252444744110e-01</leafValues></_>
        <_>
          <internalNodes>
            0 -1 46 7.5141841080039740e-04</internalNodes>
          <leafValues>
            -2.9362106323242188e-01 6.2750494480133057e-01</leafValues></_>
        <_>
          <internalNodes>
            0 -1 65 5.6292004883289337e-03</internalNodes>
          <leafValues>
            2.9883971810340881e-01 -7.7683198451995850e-01</leafValues></_>
        <_>
          <internalNodes>
            0 -1 32 -1.4509647153317928e-03</internalNodes>
          <leafValues>
            -8.6160188913345337e-01 1.4230443537235260e-01</leafValues></_>
        <_>
          <internalNodes>
            0 -1 121 -6.9075962528586388e-04</internalNodes>
          <leafValues>
            -8.5725778341293335e-01 1.5883831679821014e-01</leafValues></_></weakClassifiers></_>
    <!-- stage 3 -->
    <_>
      <maxWeakCount>5</maxWeakCount>
      <stageThreshold>-9.1564095020294189e-01</stageThreshold>
      <weakClassifiers>
        <_>
          <internalNodes>
            0 -1 35 3.5801329649984837e-03</internalNodes>
          <leafValues>
            -6.9587630033493042e-01 1.8666666746139526e-01</leafValues></_>
        <_>
          <internalNodes>
            0 -1 84 1.5823487192392349e-03</internalNodes>
          <leafValues>
            -4.9936440587043762e-01 4.5665720105171204e-01</leafValues></_>
        <_>
          <internalNodes>
            0 -1 76 2.5661047548055649e-02</internalNodes>
          <leafValues>
            -3.4223091602325439e-01 5.6160676479339600e-01</leafValues></_>
        <_>
          <internalNodes>
            0 -1 22 1.7037065699696541e-03</internalNodes>
          <leafValues>
            -3.3438044786453247e-01 6.0168617963790894e-01</leafValues></_>
        <_>
          <internalNodes>
            0 -1 100 -1.1673746630549431e-03</internalNodes>
          <leafValues>
            -8.6239844560623169e-01 2.4151249229907990e-01</leafValues></_></weakClassifiers></_>
    <!-- stage 4 -->
    <_>
      <maxWeakCount>5</maxWeakCount>
      <stageThreshold>-1.1778161525726318e+00</stageThreshold>
      <weakClassifiers>
        <_>
          <internalNodes>
            0 -1 71 3.9465781301259995e-03</internalNodes>
          <leafValues>
            -6.5277779102325439e-01 3.7735849618911743e-01</leafValues></_>
        <_>
          <internalNodes>
            0 -1 42 9.5177553594112396e-03</internalNodes>
          <leafValues>
            -4.3396568298339844e-01 5.7211869955062866e-01</leafValues></_>
        <_>
          <internalNodes>
            0 -1 82 -1.5264080837368965e-02</internalNodes>
          <leafValues>
            7.1117109060287476e-01 -2.8475755453109741e-01</leafValues></_>
        <_>
          <internalNodes>
            0 -1 77 -9.1437473893165588e-03</internalNodes>
          <leafValues>
            6.6013753414154053e-01 -3.2736700773239136e-01</leafValues></_>
        <_>
          <internalNodes>
            0 -1 113 -6.0879997909069061e-04</internalNodes>
          <leafValues>
            5.2105182409286499e-01 -3.4914442896842957e-01</leafValues></_></weakClassifiers></_>
    <!-- stage 5 -->
    <_>
      <maxWeakCount>7</maxWeakCount>
      <stageThreshold>-1.1750729084014893e+00</stageThreshold>
      <weakClassifiers>
        <_>
          <internalNodes>
            0 -1 45 1.3019363395869732e-03</internalNodes>
          <leafValues>
            -7.0114940404891968e-01 1.0526316240429878e-02</leafValues></_>
        <_>
          <internalNodes>
            0 -1 31 -1.3537846971303225e-03</internalNodes>
          <leafValues>
            4.3832340836524963e-01 -3.7765061855316162e-01</leafValues></_>
        <_>
          <internalNodes>
            0 -1 4 6.6436955239623785e-04</internalNodes>
          <leafValues>
            1.6703528165817261e-01 -8.9917457103729248e-01</leafValues></_>
        <_>
          <internalNodes>
            0 -1 29 -1.3822179287672043e-02</internalNodes>
          <leafValues>
            4.1847151517868042e-01 -3.8252106308937073e-01</leafValues></_>
        <_>
          <internalNodes>
            0 -1 25 3.2591188210062683e-04</internalNodes>
          <leafValues>
            -3.3660525083541870e-01 4.9447068572044373e-01</leafValues></_>
        <_>
          <internalNodes>
            0 -1 80 7.2839289903640747e-02</internalNodes>
          <leafValues>
            -3.4470158815383911e-01 5.3072881698608398e-01</leafValues></_>
        <_>
          <internalNodes>
            0 -1 81 -1.2592703569680452e-03</internalNodes>
          <leafValues>
            -8.4653019905090332e-01 1.9863896071910858e-01</leafValues></_></weakClassifiers></_>
    <!-- stage 6 -->
    <_>
      <maxWeakCount>6</maxWeakCount>
      <stageThreshold>-1.4643630981445313e+00</stageThreshold>
      <weakClassifiers>
        <_>
          <internalNodes>
            0 -1 101 1.0954330209642649e-03</internalNodes>
          <leafValues>
            -1.9420289993286133e-01 -9.0673577785491943e-01</leafValues></_>
        <_>
          <internalNodes>
            0 -1 119 6.6172063816338778e-04</internalNodes>
          <leafValues>
            1.0221643745899200e-01 -9.2323744297027588e-01</leafValues></_>
        <_>
          <internalNodes>
            0 -1 110 8.8666647206991911e-04</internalNodes>
          <leafValues>
            1.7041054368019104e-01 -8.8358032703399658e-01</leafValues></_>
        <_>
          <internalNodes>
            0 -1 64 -8.5002332925796509e-03</internalNodes>
          <leafValues>
            5.9300374984741211e-01 -3.1611201167106628e-01</leafValues></_>
        <_>
          <internalNodes>
            0 -1 115 -3.1047947704792023e-03</internalNodes>
          <leafValues>
            -6.6454273462295532e-01 2.8157526254653931e-01</leafValues></_>
        <_>
          <internalNodes>
            0 -1 95 5.1588378846645355e-04</internalNodes>
          <leafValues>
            1.7119242250919342e-01 -7.9571753740310669e-01</leafValues></_></weakClassifiers></_>
    <!-- stage 7 -->
    <_>
      <maxWeakCount>8</maxWeakCount>
      <stageThreshold>-1.4256590604782104e+00</stageThreshold>
      <weakClassifiers>
        <_>
          <internalNodes>
            0 -1 43 -3.3037555404007435e-03</internalNodes>
          <leafValues>
            1.2280701845884323e-01 -7.1662127971649170e-01</leafValues></_>
        <_>
          <internalNodes>
            0 -1 52 -3.1288850586861372e-03</internalNodes>
          <leafValues>
            3.8928133249282837e-01 -4.9477288126945496e-01</leafValues></_>
        <_>
          <internalNodes>
            0 -1 123 1.1058035306632519e-03</internalNodes>
          <leafValues>
            1.8593415617942810e-01 -8.1402719020843506e-01</leafValues></_>
        <_>
          <internalNodes>
            0 -1 104 -4.0021897293627262e-03</internalNodes>
          <leafValues>
            7.5602543354034424e-01 -2.2810977697372437e-01</leafValues></_>
        <_>
          <internalNodes>
            0 -1 103 5.1855370402336121e-03</internalNodes>
          <leafValues>
            -3.2996687293052673e-01 7.7992665767669678e-01</leafValues></_>
        <_>
          <internalNodes>
            0 -1 57 1.7881288658827543e-04</internalNodes>
          <leafValues>
            3.2763925194740295e-01 -7.7509450912475586e-01</leafValues></_>
        <_>
          <internalNodes>
            0 -1 70 -8.8784582912921906e-03</internalNodes>
          <leafValues>
            -9.8773336410522461e-01 1.1582251638174057e-01</leafValues></_>
        <_>
          <internalNodes>
            0 -1 56 7.2855488397181034e-03</internalNodes>
          <leafValues>
            -2.8558415174484253e-01 6.5159052610397339e-01</leafValues></_></weakClassifiers></_>
    <!-- stage 8 -->
    <_>
      <maxWeakCount>8</maxWeakCount>
      <stageThreshold>-9.7679668664932251e-01</stageThreshold>
      <weakClassifiers>
        <_>
          <internalNodes>
            0 -1 30 -2.4097993969917297e-02</internalNodes>
          <leafValues>
            3.7349396944046021e-01 -6.0000002384185791e-01</leafValues></_>
        <_>
          <internalNodes>
            0 -1 44 -2.8022937476634979e-03</internalNodes>
          <leafValues>
            3.9415058493614197e-01 -4.4938635826110840e-01</leafValues></_>
        <_>
          <internalNodes>
            0 -1 55 -3.3168658614158630e-02</internalNodes>
          <leafValues>
            8.6303538084030151e-01 -1.9254732131958008e-01</leafValues></_>
        <_>
          <internalNodes>
            0 -1 3 6.9580285344272852e-04</internalNodes>
          <leafValues>
            2.5708296895027161e-01 -7.6050043106079102e-01</leafValues></_>
        <_>
          <internalNodes>
            0 -1 13 9.5722428523004055e-04</internalNodes>
          <leafValues>
            1.7608475685119629e-01 -8.7248736619949341e-01</leafValues></_>
        <_>
          <internalNodes>
            0 -1 26 9.8581484053283930e-04</internalNodes>
          <leafValues>
            -3.3572700619697571e-01 4.7613835334777832e-01</leafValues></_>
        <_>
          <internalNodes>
            0 -1 10 -1.2350542470812798e-02</internalNodes>
          <leafValues>
            6.6128909587860107e-01 -2.5869378447532654e-01</leafValues></_>
        <_>
          <internalNodes>
            0 -1 9 1.3120287097990513e-02</internalNodes>
          <leafValues>
            -3.1954631209373474e-01 5.5841654539108276e-01</leafValues></_></weakClassifiers></_>
    <!-- stage 9 -->
    <_>
      <maxWeakCount>7</maxWeakCount>
      <stageThreshold>-1.4358937740325928e+00</stageThreshold>
      <weakClassifiers>
        <_>
          <internalNodes>
            0 -1 2 -1.2551818508654833e-03</internalNodes>
          <leafValues>
            -8.8571429252624512e-01 -2.3966942727565765e-01</leafValues></_>
        <_>
          <internalNodes>
            0 -1 75 -3.7350371712818742e-04</internalNodes>
          <leafValues>
            -8.5874044895172119e-01 8.9577987790107727e-02</leafValues></_>
        <_>
          <internalNodes>
            0 -1 74 -2.0059118978679180e-03</internalNodes>
          <leafValues>
            -9.1967600584030151e-01 1.2457798421382904e-01</leafValues></_>
        <_>
          <internalNodes>
            0 -1 36 1.1748599354177713e-03</internalNodes>
          <leafValues>
            -3.5598778724670410e-01 4.4664916396141052e-01</leafValues></_>
        <_>
          <internalNodes>
            0 -1 17 -1.3941710349172354e-03</internalNodes>
          <leafValues>
            -8.4013950824737549e-01 1.9115094840526581e-01</leafValues></_>
        <_>
          <internalNodes>
            0 -1 51 -2.7815241366624832e-02</internalNodes>
          <leafValues>
            6.7546105384826660e-01 -2.5797808170318604e-01</leafValues></_>
        <_>
          <internalNodes>
            0 -1 89 -1.2598666362464428e-03</internalNodes>
          <leafValues>
            5.1356577873229980e-01 -3.4152054786682129e-01</leafValues></_></weakClassifiers></_>
    <!-- stage 10 -->
    <_>
      <maxWeakCount>8</maxWeakCount>
      <stageThreshold>-1.0311499834060669e+00</stageThreshold>
      <weakClassifiers>
        <_>
          <internalNodes>
            0 -1 102 -1.6390943201258779e-03</internalNodes>
          <leafValues>
            3.5460993647575378e-02 -6.2216627597808838e-01</leafValues></_>
        <_>
          <internalNodes>
            0 -1 14 -4.6970410039648414e-04</internalNodes>
          <leafValues>
            -8.7299948930740356e-01 1.2541550397872925e-01</leafValues></_>
        <_>
          <internalNodes>
            0 -1 69 -4.9693014472723007e-02</internalNodes>
          <leafValues>
            4.2673519253730774e-01 -3.5883924365043640e-01</leafValues></_>
        <_>
          <internalNodes>
            0 -1 53 4.2594708502292633e-03</internalNodes>
          <leafValues>
            2.1079745888710022e-01 -9.5578622817993164e-01</leafValues></_>
        <_>
          <internalNodes>
            0 -1 38 -4.8315669409930706e-03</internalNodes>
          <leafValues>
            3.5697972774505615e-01 -4.1918185353279114e-01</leafValues></_>
        <_>
          <internalNodes>
            0 -1 28 1.9335272954776883e-03</internalNodes>
          <leafValues>
            -2.2812686860561371e-01 6.2840676307678223e-01</leafValues></_>
        <_>
          <internalNodes>
            0 -1 24 -5.9739442076534033e-04</internalNodes>
          <leafValues>
            -8.8959145545959473e-01 1.8669389188289642e-01</leafValues></_>
        <_>
          <internalNodes>
            0 -1 108 1.1023813858628273e-03</internalNodes>
          <leafValues>
            -3.6111640930175781e-01 4.5038032531738281e-01</leafValues></_></weakClassifiers></_>
    <!-- stage 11 -->
    <_>
      <maxWeakCount>6</maxWeakCount>
      <stageThreshold>-1.2416396141052246e+00</stageThreshold>
      <weakClassifiers>
        <_>
          <internalNodes>
            0 -1 63 -1.1313884519040585e-02</internalNodes>
          <leafValues>
            2.7906978130340576e-01 -5.8849555253982544e-01</leafValues></_>
        <_>
          <internalNodes>
            0 -1 12 8.2271161954849958e-04</internalNodes>
          <leafValues>
            1.4758583903312683e-01 -7.8439509868621826e-01</leafValues></_>
        <_>
          <internalNodes>
            0 -1 118 -8.1736349966377020e-04</internalNodes>
          <leafValues>
            -8.8500976562500000e-01 1.3871680200099945e-01</leafValues></_>
        <_>
          <internalNodes>
            0 -1 114 1.6916210297495127e-03</internalNodes>
          <leafValues>
            1.1263383179903030e-01 -9.7737735509872437e-01</leafValues></_>
        <_>
          <internalNodes>
            0 -1 86 1.1719493195414543e-03</internalNodes>
          <leafValues>
            -3.5586860775947571e-01 4.1823238134384155e-01</leafValues></_>
        <_>
          <internalNodes>
            0 -1 120 7.0908514317125082e-04</internalNodes>
          <leafValues>
            2.3576906323432922e-01 -7.5026172399520874e-01</leafValues></_></weakClassifiers></_>
    <!-- stage 12 -->
    <_>
      <maxWeakCount>6</maxWeakCount>
      <stageThreshold>-1.0116409063339233e+00</stageThreshold>
      <weakClassifiers>
        <_>
          <internalNodes>
            0 -1 48 -8.6541392374783754e-04</internalNodes>
          <leafValues>
            1.8446601927280426e-01 -6.0000002384185791e-01</leafValues></_>
        <_>
          <internalNodes>
            0 -1 39 5.3990259766578674e-03</internalNodes>
          <leafValues>
            1.1067195981740952e-01 -8.7626826763153076e-01</leafValues></_>
        <_>
          <internalNodes>
            0 -1 0 9.4694411382079124e-04</internalNodes>
          <leafValues>
            1.0697717964649200e-01 -8.8046324253082275e-01</leafValues></_>
        <_>
          <internalNodes>
            0 -1 37 1.6807857900857925e-04</internalNodes>
          <leafValues>
            -3.3791431784629822e-01 3.8885158300399780e-01</leafValues></_>
        <_>
          <internalNodes>
            0 -1 116 -2.5914714206010103e-04</internalNodes>
          <leafValues>
            -7.0070958137512207e-01 2.2166757285594940e-01</leafValues></_>
        <_>
          <internalNodes>
            0 -1 59 -1.1318500619381666e-03</internalNodes>
          <leafValues>
            4.2823451757431030e-01 -3.1743201613426208e-01</leafValues></_></weakClassifiers></_>
    <!-- stage 13 -->
    <_>
      <maxWeakCount>6</maxWeakCount>
      <stageThreshold>-1.0047702789306641e+00</stageThreshold>
      <weakClassifiers>
        <_>
          <internalNodes>
            0 -1 105 1.0843093506991863e-02</internalNodes>
          <leafValues>
            -5.5555558204650879e-01 5.3846156597137451e-01</leafValues></_>
        <_>
          <internalNodes>
            0 -1 91 -2.5306518655270338e-03</internalNodes>
          <leafValues>
            3.3922401070594788e-01 -4.1740471124649048e-01</leafValues></_>
        <_>
          <internalNodes>
            0 -1 87 -1.0852225823327899e-03</internalNodes>
          <leafValues>
            4.7463902831077576e-01 -2.8946518898010254e-01</leafValues></_>
        <_>
          <internalNodes>
            0 -1 15 -2.1270030993036926e-04</internalNodes>
          <leafValues>
            -6.4648234844207764e-01 2.2991539537906647e-01</leafValues></_>
        <_>
          <internalNodes>
            0 -1 6 4.7833041753619909e-04</internalNodes>
          <leafValues>
            2.0432859659194946e-01 -8.4613436460494995e-01</leafValues></_>
        <_>
          <internalNodes>
            0 -1 117 -5.9787277132272720e-04</internalNodes>
          <leafValues>
            -9.4069302082061768e-01 1.2597705423831940e-01</leafValues></_></weakClassifiers></_>
    <!-- stage 14 -->
    <_>
      <maxWeakCount>9</maxWeakCount>
      <stageThreshold>-1.2374556064605713e+00</stageThreshold>
      <weakClassifiers>
        <_>
          <internalNodes>
            0 -1 66 -1.2126814574003220e-02</internalNodes>
          <leafValues>
            3.3333334326744080e-01 -5.8260869979858398e-01</leafValues></_>
        <_>
          <internalNodes>
            0 -1 111 -4.4410390546545386e-04</internalNodes>
          <leafValues>
            4.0522259473800659e-01 -3.4589749574661255e-01</leafValues></_>
        <_>
          <internalNodes>
            0 -1 73 1.1648023501038551e-02</internalNodes>
          <leafValues>
            1.3539145886898041e-01 -9.6295791864395142e-01</leafValues></_>
        <_>
          <internalNodes>
            0 -1 20 -4.9327348824590445e-04</internalNodes>
          <leafValues>
            4.9845862388610840e-01 -2.7201616764068604e-01</leafValues></_>
        <_>
          <internalNodes>
            0 -1 106 -2.6808080729097128e-03</internalNodes>
          <leafValues>
            6.1218929290771484e-01 -2.5451451539993286e-01</leafValues></_>
        <_>
          <internalNodes>
            0 -1 107 2.5863735936582088e-03</internalNodes>
          <leafValues>
            -2.9533934593200684e-01 5.3509724140167236e-01</leafValues></_>
        <_>
          <internalNodes>
            0 -1 58 6.0008624568581581e-03</internalNodes>
          <leafValues>
            1.4879453182220459e-01 -1.</leafValues></_>
        <_>
          <internalNodes>
            0 -1 18 -5.0809578970074654e-03</internalNodes>
          <leafValues>
            7.8405112028121948e-01 -2.1376715600490570e-01</leafValues></_>
        <_>
          <internalNodes>
            0 -1 72 6.6032784525305033e-04</internalNodes>
          <leafValues>
            -3.2797294855117798e-01 4.6169644594192505e-01</leafValues></_></weakClassifiers></_>
    <!-- stage 15 -->
    <_>
      <maxWeakCount>10</maxWeakCount>
      <stageThreshold>-1.3834158182144165e+00</stageThreshold>
      <weakClassifiers>
        <_>
          <internalNodes>
            0 -1 60 -3.6867475137114525e-03</internalNodes>
          <leafValues>
            -2.0833333954215050e-02 -6.8786126375198364e-01</leafValues></_>
        <_>
          <internalNodes>
            0 -1 41 6.8622529506683350e-03</internalNodes>
          <leafValues>
            -2.3808848857879639e-01 7.9896605014801025e-01</leafValues></_>
        <_>
          <internalNodes>
            0 -1 40 -2.8972851578146219e-04</internalNodes>
          <leafValues>
            4.4609540700912476e-01 -2.8335168957710266e-01</leafValues></_>
        <_>
          <internalNodes>
            0 -1 5 -3.1084287911653519e-03</internalNodes>
          <leafValues>
            -8.3187991380691528e-01 1.5670298039913177e-01</leafValues></_>
        <_>
          <internalNodes>
            0 -1 99 1.5255601610988379e-03</internalNodes>
          <leafValues>
            1.4834731817245483e-01 -9.0373092889785767e-01</leafValues></_>
        <_>
          <internalNodes>
            0 -1 21 3.0847652815282345e-03</internalNodes>
          <leafValues>
            -2.8134328126907349e-01 5.1172518730163574e-01</leafValues></_>
        <_>
          <internalNodes>
            0 -1 96 -1.4937296509742737e-04</internalNodes>
          <leafValues>
            -6.7186963558197021e-01 2.0169571042060852e-01</leafValues></_>
        <_>
          <internalNodes>
            0 -1 90 7.2184693999588490e-04</internalNodes>
          <leafValues>
            -2.1254982054233551e-01 6.7804670333862305e-01</leafValues></_>
        <_>
          <internalNodes>
            0 -1 49 -3.9972006343305111e-03</internalNodes>
          <leafValues>
            -9.4282376766204834e-01 1.6687151789665222e-01</leafValues></_>
        <_>
          <internalNodes>
            0 -1 112 1.1782059445977211e-03</internalNodes>
          <leafValues>
            -3.5383880138397217e-01 3.7123307585716248e-01</leafValues></_></weakClassifiers></_>
    <!-- stage 16 -->
    <_>
      <maxWeakCount>9</maxWeakCount>
      <stageThreshold>-1.3974419832229614e+00</stageThreshold>
      <weakClassifiers>
        <_>
          <internalNodes>
            0 -1 93 -1.8905217293649912e-03</internalNodes>
          <leafValues>
            2.5581395626068115e-01 -5.8407080173492432e-01</leafValues></_>
        <_>
          <internalNodes>
            0 -1 7 1.4911612961441278e-03</internalNodes>
          <leafValues>
            8.6403846740722656e-02 -7.7176630496978760e-01</leafValues></_>
        <_>
          <internalNodes>
            0 -1 78 1.1827617418020964e-03</internalNodes>
          <leafValues>
            -2.2063253819942474e-01 5.7585060596466064e-01</leafValues></_>
        <_>
          <internalNodes>
            0 -1 88 2.2036114241927862e-03</internalNodes>
          <leafValues>
            -1.8515202403068542e-01 5.6796211004257202e-01</leafValues></_>
        <_>
          <internalNodes>
            0 -1 97 -2.3519067326560616e-04</internalNodes>
          <leafValues>
            3.6070969700813293e-01 -4.2274859547615051e-01</leafValues></_>
        <_>
          <internalNodes>
            0 -1 19 1.5215267194435000e-03</internalNodes>
          <leafValues>
            -3.0889460444450378e-01 4.2960616946220398e-01</leafValues></_>
        <_>
          <internalNodes>
            0 -1 98 -3.4157646587118506e-04</internalNodes>
          <leafValues>
            3.0961957573890686e-01 -4.6764847636222839e-01</leafValues></_>
        <_>
          <internalNodes>
            0 -1 27 1.5194716397672892e-03</internalNodes>
          <leafValues>
            1.3890556991100311e-01 -9.6154946088790894e-01</leafValues></_>
        <_>
          <internalNodes>
            0 -1 61 7.6725734397768974e-03</internalNodes>
          <leafValues>
            -2.3008753359317780e-01 7.2744649648666382e-01</leafValues></_></weakClassifiers></_>
    <!-- stage 17 -->
    <_>
      <maxWeakCount>8</maxWeakCount>
      <stageThreshold>-1.0301684141159058e+00</stageThreshold>
      <weakClassifiers>
        <_>
          <internalNodes>
            0 -1 83 1.2382901273667812e-02</internalNodes>
          <leafValues>
            -5.3564155101776123e-01 4.4680851697921753e-01</leafValues></_>
        <_>
          <internalNodes>
            0 -1 122 2.1616495214402676e-03</internalNodes>
          <leafValues>
            1.5489648282527924e-01 -7.7172917127609253e-01</leafValues></_>
        <_>
          <internalNodes>
            0 -1 8 9.0503906831145287e-03</internalNodes>
          <leafValues>
            1.0275529325008392e-01 -9.6064585447311401e-01</leafValues></_>
        <_>
          <internalNodes>
            0 -1 16 -3.9311200380325317e-03</internalNodes>
          <leafValues>
            -7.4621170759201050e-01 1.6888643801212311e-01</leafValues></_>
        <_>
          <internalNodes>
            0 -1 85 2.6943688280880451e-03</internalNodes>
          <leafValues>
            -2.1064954996109009e-01 6.8514782190322876e-01</leafValues></_>
        <_>
          <internalNodes>
            0 -1 79 5.5781775154173374e-04</internalNodes>
          <leafValues>
            -2.7123951911926270e-01 5.1591706275939941e-01</leafValues></_>
        <_>
          <internalNodes>
            0 -1 109 -5.6346284691244364e-04</internalNodes>
          <leafValues>
            -8.5491198301315308e-01 1.5512886643409729e-01</leafValues></_>
        <_>
          <internalNodes>
            0 -1 94 -2.7906685136258602e-04</internalNodes>
          <leafValues>
            3.3232080936431885e-01 -4.2038321495056152e-01</leafValues></_></weakClassifiers></_></stages>
  <features>
    <_>
      <rects>
        <_>
          0 0 2 4 -1.</_>
        <_>
          1 0 1 4 2.</_></rects>
      <tilted>0</tilted></_>
    <_>
      <rects>
        <_>
          0 0 9 1 -1.</_>
        <_>
          3 0 3 1 3.</_></rects>
      <tilted>0</tilted></_>
    <_>
      <rects>
        <_>
          0 1 3 5 -1.</_>
        <_>
          1 1 1 5 3.</_></rects>
      <tilted>0</tilted></_>
    <_>
      <rects>
        <_>
          0 2 3 2 -1.</_>
        <_>
          1 2 1 2 3.</_></rects>
      <tilted>0</tilted></_>
    <_>
      <rects>
        <_>
          0 2 2 4 -1.</_>
        <_>
          0 2 1 2 2.</_>
        <_>
          1 4 1 2 2.</_></rects>
      <tilted>0</tilted></_>
    <_>
      <rects>
        <_>
          0 3 1 6 -1.</_>
        <_>
          0 6 1 3 2.</_></rects>
      <tilted>0</tilted></_>
    <_>
      <rects>
        <_>
          0 3 3 2 -1.</_>
        <_>
          0 4 3 1 2.</_></rects>
      <tilted>0</tilted></_>
    <_>
      <rects>
        <_>
          0 4 1 6 -1.</_>
        <_>
          0 7 1 3 2.</_></rects>
      <tilted>0</tilted></_>
    <_>
      <rects>
        <_>
          0 4 1 15 -1.</_>
        <_>
          0 9 1 5 3.</_></rects>
      <tilted>0</tilted></_>
    <_>
      <rects>
        <_>
          0 5 6 11 -1.</_>
        <_>
          2 5 2 11 3.</_></rects>
      <tilted>0</tilted></_>
    <_>
      <rects>
        <_>
          0 7 6 9 -1.</_>
        <_>
          2 7 2 9 3.</_></rects>
      <tilted>0</tilted></_>
    <_>
      <rects>
        <_>
          0 9 10 13 -1.</_>
        <_>
          5 9 5 13 2.</_></rects>
      <tilted>0</tilted></_>
    <_>
      <rects>
        <_>
          0 18 3 3 -1.</_>
        <_>
          0 19 3 1 3.</_></rects>
      <tilted>0</tilted></_>
    <_>
      <rects>
        <_>
          0 20 2 4 -1.</_>
        <_>
          1 20 1 4 2.</_></rects>
      <tilted>0</tilted></_>
    <_>
      <rects>
        <_>
          0 21 3 1 -1.</_>
        <_>
          1 21 1 1 3.</_></rects>
      <tilted>0</tilted></_>
    <_>
      <rects>
        <_>
          0 23 2 1 -1.</_>
        <_>
          1 23 1 1 2.</_></rects>
      <tilted>0</tilted></_>
    <_>
      <rects>
        <_>
          0 23 12 1 -1.</_>
        <_>
          4 23 4 1 3.</_></rects>
      <tilted>0</tilted></_>
    <_>
      <rects>
        <_>
          1 1 1 6 -1.</_>
        <_>
          1 3 1 2 3.</_></rects>
      <tilted>0</tilted></_>
    <_>
      <rects>
        <_>
          1 2 4 6 -1.</_>
        <_>
          1 2 2 3 2.</_>
        <_>
          3 5 2 3 2.</_></rects>
      <tilted>0</tilted></_>
    <_>
      <rects>
        <_>
          1 2 8 2 -1.</_>
        <_>
          1 2 4 1 2.</_>
        <_>
          5 3 4 1 2.</_></rects>
      <tilted>0</tilted></_>
    <_>
      <rects>
        <_>
          1 6 3 1 -1.</_>
        <_>
          2 6 1 1 3.</_></rects>
      <tilted>0</tilted></_>
    <_>
      <rects>
        <_>
          1 7 2 9 -1.</_>
        <_>
          2 7 1 9 2.</_></rects>
      <tilted>0</tilted></_>
    <_>
      <rects>
        <_>
          1 8 2 5 -1.</_>
        <_>
          2 8 1 5 2.</_></rects>
      <tilted>0</tilted></_>
    <_>
      <rects>
        <_>
          1 8 3 8 -1.</_>
        <_>
          2 8 1 8 3.</_></rects>
      <tilted>0</tilted></_>
    <_>
      <rects>
        <_>
          1 9 1 3 -1.</_>
        <_>
          1 10 1 1 3.</_></rects>
      <tilted>0</tilted></_>
    <_>
      <rects>
        <_>
          1 10 2 1 -1.</_>
        <_>
          2 10 1 1 2.</_></rects>
      <tilted>0</tilted></_>
    <_>
      <rects>
        <_>
          1 12 6 1 -1.</_>
        <_>
          3 12 2 1 3.</_></rects>
      <tilted>0</tilted></_>
    <_>
      <rects>
        <_>
          2 0 3 3 -1.</_>
        <_>
          2 1 3 1 3.</_></rects>
      <tilted>0</tilted></_>
    <_>
      <rects>
        <_>
          2 4 2 4 -1.</_>
        <_>
          2 4 1 2 2.</_>
        <_>
          3 6 1 2 2.</_></rects>
      <tilted>0</tilted></_>
    <_>
      <rects>
        <_>
          2 8 9 13 -1.</_>
        <_>
          5 8 3 13 3.</_></rects>
      <tilted>0</tilted></_>
    <_>
      <rects>
        <_>
          2 9 4 12 -1.</_>
        <_>
          4 9 2 12 2.</_></rects>
      <tilted>0</tilted></_>
    <_>
      <rects>
        <_>
          2 15 2 6 -1.</_>
        <_>
          2 15 1 3 2.</_>
        <_>
          3 18 1 3 2.</_></rects>
      <tilted>0</tilted></_>
    <_>
      <rects>
        <_>
          2 18 1 6 -1.</_>
        <_>
          2 21 1 3 2.</_></rects>
      <tilted>0</tilted></_>
    <_>
      <rects>
        <_>
          3 2 6 2 -1.</_>
        <_>
          3 2 3 1 2.</_>
        <_>
          6 3 3 1 2.</_></rects>
      <tilted>0</tilted></_>
    <_>
      <rects>
        <_>
          4 0 12 1 -1.</_>
        <_>
          8 0 4 1 3.</_></rects>
      <tilted>0</tilted></_>
    <_>
      <rects>
        <_>
          4 1 6 4 -1.</_>
        <_>
          4 1 3 2 2.</_>
        <_>
          7 3 3 2 2.</_></rects>
      <tilted>0</tilted></_>
    <_>
      <rects>
        <_>
          4 2 4 2 -1.</_>
        <_>
          4 2 2 1 2.</_>
        <_>
          6 3 2 1 2.</_></rects>
      <tilted>0</tilted></_>
    <_>
      <rects>
        <_>
          4 4 2 1 -1.</_>
        <_>
          5 4 1 1 2.</_></rects>
      <tilted>0</tilted></_>
    <_>
      <rects>
        <_>
          4 18 8 6 -1.</_>
        <_>
          4 20 8 2 3.</_></rects>
      <tilted>0</tilted></_>
    <_>
      <rects>
        <_>
          4 18 20 2 -1.</_>
        <_>
          4 18 10 1 2.</_>
        <_>
          14 19 10 1 2.</_></rects>
      <tilted>0</tilted></_>
    <_>
      <rects>
        <_>
          4 19 2 2 -1.</_>
        <_>
          4 19 1 1 2.</_>
        <_>
          5 20 1 1 2.</_></rects>
      <tilted>0</tilted></_>
    <_>
      <rects>
        <_>
          4 19 4 4 -1.</_>
        <_>
          4 19 2 2 2.</_>
        <_>
          6 21 2 2 2.</_></rects>
      <tilted>0</tilted></_>
    <_>
      <rects>
        <_>
          4 20 9 4 -1.</_>
        <_>
          4 22 9 2 2.</_></rects>
      <tilted>0</tilted></_>
    <_>
      <rects>
        <_>
          4 21 11 3 -1.</_>
        <_>
          4 22 11 1 3.</_></rects>
      <tilted>0</tilted></_>
    <_>
      <rects>
        <_>
          5 0 2 6 -1.</_>
        <_>
          5 2 2 2 3.</_></rects>
      <tilted>0</tilted></_>
    <_>
      <rects>
        <_>
          5 1 10 2 -1.</_>
        <_>
          5 1 5 1 2.</_>
        <_>
          10 2 5 1 2.</_></rects>
      <tilted>0</tilted></_>
    <_>
      <rects>
        <_>
          5 2 2 2 -1.</_>
        <_>
          5 2 1 1 2.</_>
        <_>
          6 3 1 1 2.</_></rects>
      <tilted>0</tilted></_>
    <_>
      <rects>
        <_>
          5 3 9 13 -1.</_>
        <_>
          8 3 3 13 3.</_></rects>
      <tilted>0</tilted></_>
    <_>
      <rects>
        <_>
          5 20 2 2 -1.</_>
        <_>
          5 20 1 1 2.</_>
        <_>
          6 21 1 1 2.</_></rects>
      <tilted>0</tilted></_>
    <_>
      <rects>
        <_>
          6 0 2 7 -1.</_>
        <_>
          7 0 1 7 2.</_></rects>
      <tilted>0</tilted></_>
    <_>
      <rects>
        <_>
          6 0 9 14 -1.</_>
        <_>
          9 0 3 14 3.</_></rects>
      <tilted>0</tilted></_>
    <_>
      <rects>
        <_>
          6 0 12 4 -1.</_>
        <_>
          6 2 12 2 2.</_></rects>
      <tilted>0</tilted></_>
    <_>
      <rects>
        <_>
          6 0 17 3 -1.</_>
        <_>
          6 1 17 1 3.</_></rects>
      <tilted>0</tilted></_>
    <_>
      <rects>
        <_>
          6 1 3 12 -1.</_>
        <_>
          7 1 1 12 3.</_></rects>
      <tilted>0</tilted></_>
    <_>
      <rects>
        <_>
          6 1 18 12 -1.</_>
        <_>
          12 1 6 12 3.</_></rects>
      <tilted>0</tilted></_>
    <_>
      <rects>
        <_>
          6 20 12 4 -1.</_>
        <_>
          6 22 12 2 2.</_></rects>
      <tilted>0</tilted></_>
    <_>
      <rects>
        <_>
          6 21 12 2 -1.</_>
        <_>
          6 22 12 1 2.</_></rects>
      <tilted>0</tilted></_>
    <_>
      <rects>
        <_>
          6 23 2 1 -1.</_>
        <_>
          7 23 1 1 2.</_></rects>
      <tilted>0</tilted></_>
    <_>
      <rects>
        <_>
          7 0 6 4 -1.</_>
        <_>
          9 0 2 4 3.</_></rects>
      <tilted>0</tilted></_>
    <_>
      <rects>
        <_>
          7 20 6 2 -1.</_>
        <_>
          7 21 6 1 2.</_></rects>
      <tilted>0</tilted></_>
    <_>
      <rects>
        <_>
          7 21 8 3 -1.</_>
        <_>
          7 22 8 1 3.</_></rects>
      <tilted>0</tilted></_>
    <_>
      <rects>
        <_>
          7 21 9 2 -1.</_>
        <_>
          7 22 9 1 2.</_></rects>
      <tilted>0</tilted></_>
    <_>
      <rects>
        <_>
          7 21 11 3 -1.</_>
        <_>
          7 22 11 1 3.</_></rects>
      <tilted>0</tilted></_>
    <_>
      <rects>
        <_>
          8 0 8 3 -1.</_>
        <_>
          8 1 8 1 3.</_></rects>
      <tilted>0</tilted></_>
    <_>
      <rects>
        <_>
          8 0 10 3 -1.</_>
        <_>
          8 1 10 1 3.</_></rects>
      <tilted>0</tilted></_>
    <_>
      <rects>
        <_>
          8 8 4 7 -1.</_>
        <_>
          10 8 2 7 2.</_></rects>
      <tilted>0</tilted></_>
    <_>
      <rects>
        <_>
          8 21 8 3 -1.</_>
        <_>
          8 22 8 1 3.</_></rects>
      <tilted>0</tilted></_>
    <_>
      <rects>
        <_>
          8 23 12 1 -1.</_>
        <_>
          12 23 4 1 3.</_></rects>
      <tilted>0</tilted></_>
    <_>
      <rects>
        <_>
          9 0 8 3 -1.</_>
        <_>
          9 1 8 1 3.</_></rects>
      <tilted>0</tilted></_>
    <_>
      <rects>
        <_>
          9 2 15 9 -1.</_>
        <_>
          14 2 5 9 3.</_></rects>
      <tilted>0</tilted></_>
    <_>
      <rects>
        <_>
          10 20 6 4 -1.</_>
        <_>
          12 20 2 4 3.</_></rects>
      <tilted>0</tilted></_>
    <_>
      <rects>
        <_>
          10 21 10 2 -1.</_>
        <_>
          10 21 5 1 2.</_>
        <_>
          15 22 5 1 2.</_></rects>
      <tilted>0</tilted></_>
    <_>
      <rects>
        <_>
          11 1 1 4 -1.</_>
        <_>
          11 3 1 2 2.</_></rects>
      <tilted>0</tilted></_>
    <_>
      <rects>
        <_>
          11 13 6 10 -1.</_>
        <_>
          13 13 2 10 3.</_></rects>
      <tilted>0</tilted></_>
    <_>
      <rects>
        <_>
          12 0 2 8 -1.</_>
        <_>
          12 0 1 4 2.</_>
        <_>
          13 4 1 4 2.</_></rects>
      <tilted>0</tilted></_>
    <_>
      <rects>
        <_>
          12 23 2 1 -1.</_>
        <_>
          13 23 1 1 2.</_></rects>
      <tilted>0</tilted></_>
    <_>
      <rects>
        <_>
          13 12 10 5 -1.</_>
        <_>
          18 12 5 5 2.</_></rects>
      <tilted>0</tilted></_>
    <_>
      <rects>
        <_>
          14 0 8 6 -1.</_>
        <_>
          14 0 4 3 2.</_>
        <_>
          18 3 4 3 2.</_></rects>
      <tilted>0</tilted></_>
    <_>
      <rects>
        <_>
          14 2 4 2 -1.</_>
        <_>
          14 2 2 1 2.</_>
        <_>
          16 3 2 1 2.</_></rects>
      <tilted>0</tilted></_>
    <_>
      <rects>
        <_>
          14 2 3 2 -1.</_>
        <_>
          14 3 3 1 2.</_></rects>
      <tilted>0</tilted></_>
    <_>
      <rects>
        <_>
          14 3 10 13 -1.</_>
        <_>
          19 3 5 13 2.</_></rects>
      <tilted>0</tilted></_>
    <_>
      <rects>
        <_>
          15 0 6 1 -1.</_>
        <_>
          17 0 2 1 3.</_></rects>
      <tilted>0</tilted></_>
    <_>
      <rects>
        <_>
          15 0 5 6 -1.</_>
        <_>
          15 3 5 3 2.</_></rects>
      <tilted>0</tilted></_>
    <_>
      <rects>
        <_>
          15 1 4 4 -1.</_>
        <_>
          15 3 4 2 2.</_></rects>
      <tilted>0</tilted></_>
    <_>
      <rects>
        <_>
          15 20 6 2 -1.</_>
        <_>
          15 20 3 1 2.</_>
        <_>
          18 21 3 1 2.</_></rects>
      <tilted>0</tilted></_>
    <_>
      <rects>
        <_>
          16 2 4 2 -1.</_>
        <_>
          16 2 2 1 2.</_>
        <_>
          18 3 2 1 2.</_></rects>
      <tilted>0</tilted></_>
    <_>
      <rects>
        <_>
          16 20 4 2 -1.</_>
        <_>
          16 20 2 1 2.</_>
        <_>
          18 21 2 1 2.</_></rects>
      <tilted>0</tilted></_>
    <_>
      <rects>
        <_>
          17 1 2 4 -1.</_>
        <_>
          17 1 1 2 2.</_>
        <_>
          18 3 1 2 2.</_></rects>
      <tilted>0</tilted></_>
    <_>
      <rects>
        <_>
          17 1 4 4 -1.</_>
        <_>
          17 1 2 2 2.</_>
        <_>
          19 3 2 2 2.</_></rects>
      <tilted>0</tilted></_>
    <_>
      <rects>
        <_>
          17 2 4 4 -1.</_>
        <_>
          17 2 2 2 2.</_>
        <_>
          19 4 2 2 2.</_></rects>
      <tilted>0</tilted></_>
    <_>
      <rects>
        <_>
          17 11 2 2 -1.</_>
        <_>
          17 11 1 1 2.</_>
        <_>
          18 12 1 1 2.</_></rects>
      <tilted>0</tilted></_>
    <_>
      <rects>
        <_>
          17 18 2 6 -1.</_>
        <_>
          17 20 2 2 3.</_></rects>
      <tilted>0</tilted></_>
    <_>
      <rects>
        <_>
          17 19 4 2 -1.</_>
        <_>
          17 19 2 1 2.</_>
        <_>
          19 20 2 1 2.</_></rects>
      <tilted>0</tilted></_>
    <_>
      <rects>
        <_>
          17 20 1 3 -1.</_>
        <_>
          17 21 1 1 3.</_></rects>
      <tilted>0</tilted></_>
    <_>
      <rects>
        <_>
          18 19 5 3 -1.</_>
        <_>
          18 20 5 1 3.</_></rects>
      <tilted>0</tilted></_>
    <_>
      <rects>
        <_>
          19 0 2 2 -1.</_>
        <_>
          19 1 2 1 2.</_></rects>
      <tilted>0</tilted></_>
    <_>
      <rects>
        <_>
          19 1 2 2 -1.</_>
        <_>
          19 1 1 1 2.</_>
        <_>
          20 2 1 1 2.</_></rects>
      <tilted>0</tilted></_>
    <_>
      <rects>
        <_>
          19 2 2 2 -1.</_>
        <_>
          19 3 2 1 2.</_></rects>
      <tilted>0</tilted></_>
    <_>
      <rects>
        <_>
          19 16 2 6 -1.</_>
        <_>
          19 18 2 2 3.</_></rects>
      <tilted>0</tilted></_>
    <_>
      <rects>
        <_>
          19 21 3 3 -1.</_>
        <_>
          19 22 3 1 3.</_></rects>
      <tilted>0</tilted></_>
    <_>
      <rects>
        <_>
          19 22 5 2 -1.</_>
        <_>
          19 23 5 1 2.</_></rects>
      <tilted>0</tilted></_>
    <_>
      <rects>
        <_>
          20 0 2 4 -1.</_>
        <_>
          20 2 2 2 2.</_></rects>
      <tilted>0</tilted></_>
    <_>
      <rects>
        <_>
          20 2 2 6 -1.</_>
        <_>
          20 2 1 3 2.</_>
        <_>
          21 5 1 3 2.</_></rects>
      <tilted>0</tilted></_>
    <_>
      <rects>
        <_>
          20 8 3 8 -1.</_>
        <_>
          21 8 1 8 3.</_></rects>
      <tilted>0</tilted></_>
    <_>
      <rects>
        <_>
          20 8 3 9 -1.</_>
        <_>
          21 8 1 9 3.</_></rects>
      <tilted>0</tilted></_>
    <_>
      <rects>
        <_>
          20 8 3 10 -1.</_>
        <_>
          21 8 1 10 3.</_></rects>
      <tilted>0</tilted></_>
    <_>
      <rects>
        <_>
          20 10 3 5 -1.</_>
        <_>
          21 10 1 5 3.</_></rects>
      <tilted>0</tilted></_>
    <_>
      <rects>
        <_>
          20 10 3 6 -1.</_>
        <_>
          21 10 1 6 3.</_></rects>
      <tilted>0</tilted></_>
    <_>
      <rects>
        <_>
          20 15 2 6 -1.</_>
        <_>
          20 15 1 3 2.</_>
        <_>
          21 18 1 3 2.</_></rects>
      <tilted>0</tilted></_>
    <_>
      <rects>
        <_>
          20 23 4 1 -1.</_>
        <_>
          22 23 2 1 2.</_></rects>
      <tilted>0</tilted></_>
    <_>
      <rects>
        <_>
          21 3 3 2 -1.</_>
        <_>
          21 4 3 1 2.</_></rects>
      <tilted>0</tilted></_>
    <_>
      <rects>
        <_>
          21 12 3 2 -1.</_>
        <_>
          22 12 1 2 3.</_></rects>
      <tilted>0</tilted></_>
    <_>
      <rects>
        <_>
          21 12 2 8 -1.</_>
        <_>
          21 12 1 4 2.</_>
        <_>
          22 16 1 4 2.</_></rects>
      <tilted>0</tilted></_>
    <_>
      <rects>
        <_>
          21 13 2 2 -1.</_>
        <_>
          22 13 1 2 2.</_></rects>
      <tilted>0</tilted></_>
    <_>
      <rects>
        <_>
          21 20 3 3 -1.</_>
        <_>
          22 20 1 3 3.</_></rects>
      <tilted>0</tilted></_>
    <_>
      <rects>
        <_>
          22 2 2 6 -1.</_>
        <_>
          22 4 2 2 3.</_></rects>
      <tilted>0</tilted></_>
    <_>
      <rects>
        <_>
          22 3 2 2 -1.</_>
        <_>
          23 3 1 2 2.</_></rects>
      <tilted>0</tilted></_>
    <_>
      <rects>
        <_>
          22 12 1 3 -1.</_>
        <_>
          22 13 1 1 3.</_></rects>
      <tilted>0</tilted></_>
    <_>
      <rects>
        <_>
          22 17 1 4 -1.</_>
        <_>
          22 19 1 2 2.</_></rects>
      <tilted>0</tilted></_>
    <_>
      <rects>
        <_>
          22 18 2 4 -1.</_>
        <_>
          22 18 1 2 2.</_>
        <_>
          23 20 1 2 2.</_></rects>
      <tilted>0</tilted></_>
    <_>
      <rects>
        <_>
          22 20 2 2 -1.</_>
        <_>
          23 20 1 2 2.</_></rects>
      <tilted>0</tilted></_>
    <_>
      <rects>
        <_>
          22 21 2 3 -1.</_>
        <_>
          23 21 1 3 2.</_></rects>
      <tilted>0</tilted></_>
    <_>
      <rects>
        <_>
          23 0 1 9 -1.</_>
        <_>
          23 3 1 3 3.</_></rects>
      <tilted>0</tilted></_>
    <_>
      <rects>
        <_>
          23 11 1 6 -1.</_>
        <_>
          23 13 1 2 3.</_></rects>
      <tilted>0</tilted></_></features></cascade>
</opencv_storage>
