<?xml version="1.0"?>
<opencv_storage>
<cascade>
  <stageType>BOOST</stageType>
  <featureType>HAAR</featureType>
  <height>24</height>
  <width>24</width>
  <stageParams>
    <boostType>GAB</boostType>
    <minHitRate>9.9500000476837158e-01</minHitRate>
    <maxFalseAlarm>5.0000000000000000e-01</maxFalseAlarm>
    <weightTrimRate>9.4999999999999996e-01</weightTrimRate>
    <maxDepth>1</maxDepth>
    <maxWeakCount>100</maxWeakCount></stageParams>
  <featureParams>
    <maxCatCount>0</maxCatCount>
    <featSize>1</featSize>
    <mode>BASIC</mode></featureParams>
  <stageNum>20</stageNum>
  <stages>
    <!-- stage 0 -->
    <_>
      <maxWeakCount>4</maxWeakCount>
      <stageThreshold>-1.2795804738998413e+00</stageThreshold>
      <weakClassifiers>
        <_>
          <internalNodes>
            0 -1 53 -7.3486356995999813e-03</internalNodes>
          <leafValues>
            5.7009345293045044e-01 -7.0301622152328491e-01</leafValues></_>
        <_>
          <internalNodes>
            0 -1 23 -9.0092550963163376e-03</internalNodes>
          <leafValues>
            4.5043992996215820e-01 -6.5702927112579346e-01</leafValues></_>
        <_>
          <internalNodes>
            0 -1 90 1.0012574493885040e-03</internalNodes>
          <leafValues>
            -4.6756193041801453e-01 6.7008507251739502e-01</leafValues></_>
        <_>
          <internalNodes>
            0 -1 37 3.5740408929996192e-04</internalNodes>
          <leafValues>
            -4.7332376241683960e-01 5.4802697896957397e-01</leafValues></_></weakClassifiers></_>
    <!-- stage 1 -->
    <_>
      <maxWeakCount>5</maxWeakCount>
      <stageThreshold>-7.6263856887817383e-01</stageThreshold>
      <weakClassifiers>
        <_>
          <internalNodes>
            0 -1 46 1.1498820967972279e-03</internalNodes>
          <leafValues>
            -6.4347827434539795e-01 6.9230771064758301e-01</leafValues></_>
        <_>
          <internalNodes>
            0 -1 55 -6.8033998832106590e-03</internalNodes>
          <leafValues>
            6.2103003263473511e-01 -4.0286916494369507e-01</leafValues></_>
        <_>
          <internalNodes>
            0 -1 9 -5.0163410604000092e-02</internalNodes>
          <leafValues>
            4.2354667186737061e-01 -5.9322357177734375e-01</leafValues></_>
        <_>
          <internalNodes>
            0 -1 75 7.7729634940624237e-03</internalNodes>
          <leafValues>
            2.4683800339698792e-01 -9.5108354091644287e-01</leafValues></_>
        <_>
          <internalNodes>
            0 -1 114 -2.1373766940087080e-03</internalNodes>
          <leafValues>
            6.8266296386718750e-01 -3.8667580485343933e-01</leafValues></_></weakClassifiers></_>
    <!-- stage 2 -->
    <_>
      <maxWeakCount>6</maxWeakCount>
      <stageThreshold>-1.3008731603622437e+00</stageThreshold>
      <weakClassifiers>
        <_>
          <internalNodes>
            0 -1 59 -9.1802459210157394e-03</internalNodes>
          <leafValues>
            4.5263159275054932e-01 -6.4334088563919067e-01</leafValues></_>
        <_>
          <internalNodes>
            0 -1 67 -1.3852161355316639e-02</internalNodes>
          <leafValues>
            -8.1256097555160522e-01 2.2359876334667206e-01</leafValues></_>
        <_>
          <internalNodes>
            0 -1 14 -4.6374823432415724e-04</internalNodes>
          <leafValues>
            -9.3880367279052734e-01 1.9026285409927368e-01</leafValues></_>
        <_>
          <internalNodes>
            0 -1 28 1.5331686008721590e-03</internalNodes>
          <leafValues>
            -3.7935337424278259e-01 5.7370311021804810e-01</leafValues></_>
        <_>
          <internalNodes>
            0 -1 74 1.7964877188205719e-03</internalNodes>
          <leafValues>
            2.5381335616111755e-01 -9.2618519067764282e-01</leafValues></_>
        <_>
          <internalNodes>
            0 -1 125 -7.0750107988715172e-04</internalNodes>
          <leafValues>
            -8.4319126605987549e-01 1.8321262300014496e-01</leafValues></_></weakClassifiers></_>
    <!-- stage 3 -->
    <_>
      <maxWeakCount>8</maxWeakCount>
      <stageThreshold>-1.6148127317428589e+00</stageThreshold>
      <weakClassifiers>
        <_>
          <internalNodes>
            0 -1 52 -6.8555995821952820e-03</internalNodes>
          <leafValues>
            3.4375000000000000e-01 -6.9756096601486206e-01</leafValues></_>
        <_>
          <internalNodes>
            0 -1 109 1.4346926473081112e-03</internalNodes>
          <leafValues>
            -4.4301491975784302e-01 5.6546896696090698e-01</leafValues></_>
        <_>
          <internalNodes>
            0 -1 68 -1.2797499075531960e-02</internalNodes>
          <leafValues>
            -8.2667380571365356e-01 2.4943274259567261e-01</leafValues></_>
        <_>
          <internalNodes>
            0 -1 45 -3.0086841434240341e-04</internalNodes>
          <leafValues>
            -8.0582082271575928e-01 2.3647119104862213e-01</leafValues></_>
        <_>
          <internalNodes>
            0 -1 22 1.2865115422755480e-03</internalNodes>
          <leafValues>
            -3.4960067272186279e-01 6.6423755884170532e-01</leafValues></_>
        <_>
          <internalNodes>
            0 -1 117 -2.1928260684944689e-04</internalNodes>
          <leafValues>
            -8.2621645927429199e-01 3.1788349151611328e-01</leafValues></_>
        <_>
          <internalNodes>
            0 -1 25 -8.9261736720800400e-03</internalNodes>
          <leafValues>
            5.2503097057342529e-01 -4.4948405027389526e-01</leafValues></_>
        <_>
          <internalNodes>
            0 -1 29 -4.1311589302495122e-04</internalNodes>
          <leafValues>
            5.9716695547103882e-01 -4.3993926048278809e-01</leafValues></_></weakClassifiers></_>
    <!-- stage 4 -->
    <_>
      <maxWeakCount>4</maxWeakCount>
      <stageThreshold>-8.3965295553207397e-01</stageThreshold>
      <weakClassifiers>
        <_>
          <internalNodes>
            0 -1 82 7.0337182842195034e-03</internalNodes>
          <leafValues>
            -6.6359448432922363e-01 4.4230768084526062e-01</leafValues></_>
        <_>
          <internalNodes>
            0 -1 57 -1.1803166940808296e-02</internalNodes>
          <leafValues>
            5.5223667621612549e-01 -4.9235510826110840e-01</leafValues></_>
        <_>
          <internalNodes>
            0 -1 3 -1.3058453332632780e-03</internalNodes>
          <leafValues>
            -9.4555419683456421e-01 2.1525239944458008e-01</leafValues></_>
        <_>
          <internalNodes>
            0 -1 10 -1.3814991712570190e-01</internalNodes>
          <leafValues>
            -8.3876401185989380e-01 2.1725900471210480e-01</leafValues></_></weakClassifiers></_>
    <!-- stage 5 -->
    <_>
      <maxWeakCount>6</maxWeakCount>
      <stageThreshold>-1.2579809427261353e+00</stageThreshold>
      <weakClassifiers>
        <_>
          <internalNodes>
            0 -1 64 -4.3389710481278598e-04</internalNodes>
          <leafValues>
            1.9745223224163055e-01 -7.1653544902801514e-01</leafValues></_>
        <_>
          <internalNodes>
            0 -1 56 -2.5344607420265675e-03</internalNodes>
          <leafValues>
            4.8029029369354248e-01 -5.1293003559112549e-01</leafValues></_>
        <_>
          <internalNodes>
            0 -1 44 -2.4420261615887284e-04</internalNodes>
          <leafValues>
            5.4778552055358887e-01 -3.8067358732223511e-01</leafValues></_>
        <_>
          <internalNodes>
            0 -1 77 1.7188499914482236e-03</internalNodes>
          <leafValues>
            -3.8682702183723450e-01 5.7725679874420166e-01</leafValues></_>
        <_>
          <internalNodes>
            0 -1 33 -2.4640955030918121e-02</internalNodes>
          <leafValues>
            5.0942063331604004e-01 -4.4564026594161987e-01</leafValues></_>
        <_>
          <internalNodes>
            0 -1 104 -7.7045900980010629e-04</internalNodes>
          <leafValues>
            -8.5098147392272949e-01 2.7063772082328796e-01</leafValues></_></weakClassifiers></_>
    <!-- stage 6 -->
    <_>
      <maxWeakCount>6</maxWeakCount>
      <stageThreshold>-1.3070920705795288e+00</stageThreshold>
      <weakClassifiers>
        <_>
          <internalNodes>
            0 -1 94 2.6476491242647171e-02</internalNodes>
          <leafValues>
            -6.2100458145141602e-01 3.0000001192092896e-01</leafValues></_>
        <_>
          <internalNodes>
            0 -1 63 -3.5412809811532497e-03</internalNodes>
          <leafValues>
            -9.3290936946868896e-01 1.6871844232082367e-01</leafValues></_>
        <_>
          <internalNodes>
            0 -1 92 -1.1228506918996572e-03</internalNodes>
          <leafValues>
            6.0415482521057129e-01 -4.1910651326179504e-01</leafValues></_>
        <_>
          <internalNodes>
            0 -1 61 2.1471967920660973e-03</internalNodes>
          <leafValues>
            3.3087226748466492e-01 -1.</leafValues></_>
        <_>
          <internalNodes>
            0 -1 112 3.6605706554837525e-04</internalNodes>
          <leafValues>
            1.1790933459997177e-01 -8.6098003387451172e-01</leafValues></_>
        <_>
          <internalNodes>
            0 -1 27 -6.8726338213309646e-04</internalNodes>
          <leafValues>
            -8.0115723609924316e-01 2.1714679896831512e-01</leafValues></_></weakClassifiers></_>
    <!-- stage 7 -->
    <_>
      <maxWeakCount>6</maxWeakCount>
      <stageThreshold>-9.4933444261550903e-01</stageThreshold>
      <weakClassifiers>
        <_>
          <internalNodes>
            0 -1 65 -4.4948523864150047e-03</internalNodes>
          <leafValues>
            3.3333334326744080e-01 -6.9682151079177856e-01</leafValues></_>
        <_>
          <internalNodes>
            0 -1 97 -1.9763145246542990e-04</internalNodes>
          <leafValues>
            4.1326484084129333e-01 -5.0853896141052246e-01</leafValues></_>
        <_>
          <internalNodes>
            0 -1 123 -2.2654931526631117e-03</internalNodes>
          <leafValues>
            -8.3491694927215576e-01 2.2282488644123077e-01</leafValues></_>
        <_>
          <internalNodes>
            0 -1 80 3.9084680378437042e-02</internalNodes>
          <leafValues>
            -3.0069255828857422e-01 6.5348595380783081e-01</leafValues></_>
        <_>
          <internalNodes>
            0 -1 7 1.9412869587540627e-02</internalNodes>
          <leafValues>
            -2.9807063937187195e-01 6.4608734846115112e-01</leafValues></_>
        <_>
          <internalNodes>
            0 -1 113 -3.9837663061916828e-03</internalNodes>
          <leafValues>
            6.3196438550949097e-01 -2.6848408579826355e-01</leafValues></_></weakClassifiers></_>
    <!-- stage 8 -->
    <_>
      <maxWeakCount>7</maxWeakCount>
      <stageThreshold>-1.0080783367156982e+00</stageThreshold>
      <weakClassifiers>
        <_>
          <internalNodes>
            0 -1 41 -2.9647373594343662e-03</internalNodes>
          <leafValues>
            2.5714287161827087e-01 -6.2124711275100708e-01</leafValues></_>
        <_>
          <internalNodes>
            0 -1 87 -4.3881555029656738e-05</internalNodes>
          <leafValues>
            2.9167726635932922e-01 -5.5199211835861206e-01</leafValues></_>
        <_>
          <internalNodes>
            0 -1 124 1.4136903919279575e-03</internalNodes>
          <leafValues>
            1.8340159952640533e-01 -8.5398662090301514e-01</leafValues></_>
        <_>
          <internalNodes>
            0 -1 48 4.4661615975201130e-03</internalNodes>
          <leafValues>
            1.8943390250205994e-01 -8.1769150495529175e-01</leafValues></_>
        <_>
          <internalNodes>
            0 -1 32 -2.5600390508770943e-03</internalNodes>
          <leafValues>
            5.8981895446777344e-01 -2.9608657956123352e-01</leafValues></_>
        <_>
          <internalNodes>
            0 -1 1 5.2151142153888941e-04</internalNodes>
          <leafValues>
            2.1175168454647064e-01 -8.8839840888977051e-01</leafValues></_>
        <_>
          <internalNodes>
            0 -1 99 1.8077124841511250e-03</internalNodes>
          <leafValues>
            1.7926591634750366e-01 -8.4578931331634521e-01</leafValues></_></weakClassifiers></_>
    <!-- stage 9 -->
    <_>
      <maxWeakCount>6</maxWeakCount>
      <stageThreshold>-1.2994315624237061e+00</stageThreshold>
      <weakClassifiers>
        <_>
          <internalNodes>
            0 -1 81 3.7394154351204634e-03</internalNodes>
          <leafValues>
            -6.7828416824340820e-01 6.6666670143604279e-02</leafValues></_>
        <_>
          <internalNodes>
            0 -1 60 -1.5071283560246229e-03</internalNodes>
          <leafValues>
            -7.7279454469680786e-01 2.3572459816932678e-01</leafValues></_>
        <_>
          <internalNodes>
            0 -1 120 8.6415139958262444e-04</internalNodes>
          <leafValues>
            2.2730624675750732e-01 -7.4748116731643677e-01</leafValues></_>
        <_>
          <internalNodes>
            0 -1 0 -9.5804757438600063e-04</internalNodes>
          <leafValues>
            -8.5882854461669922e-01 2.1826510131359100e-01</leafValues></_>
        <_>
          <internalNodes>
            0 -1 43 3.3495677635073662e-03</internalNodes>
          <leafValues>
            -3.5401123762130737e-01 5.9959888458251953e-01</leafValues></_>
        <_>
          <internalNodes>
            0 -1 72 8.8527461048215628e-04</internalNodes>
          <leafValues>
            2.9482126235961914e-01 -6.8486380577087402e-01</leafValues></_></weakClassifiers></_>
    <!-- stage 10 -->
    <_>
      <maxWeakCount>7</maxWeakCount>
      <stageThreshold>-1.0351555347442627e+00</stageThreshold>
      <weakClassifiers>
        <_>
          <internalNodes>
            0 -1 83 -2.2342600859701633e-03</internalNodes>
          <leafValues>
            3.6082473397254944e-01 -6.2811791896820068e-01</leafValues></_>
        <_>
          <internalNodes>
            0 -1 42 -4.2414371855556965e-03</internalNodes>
          <leafValues>
            4.8038166761398315e-01 -3.7576386332511902e-01</leafValues></_>
        <_>
          <internalNodes>
            0 -1 54 3.9170933887362480e-03</internalNodes>
          <leafValues>
            -2.8506568074226379e-01 6.2221527099609375e-01</leafValues></_>
        <_>
          <internalNodes>
            0 -1 102 -1.9426787039265037e-03</internalNodes>
          <leafValues>
            4.6225231885910034e-01 -3.6863890290260315e-01</leafValues></_>
        <_>
          <internalNodes>
            0 -1 98 -1.1275697033852339e-04</internalNodes>
          <leafValues>
            -8.0945104360580444e-01 2.3911878466606140e-01</leafValues></_>
        <_>
          <internalNodes>
            0 -1 108 -1.5825179871171713e-03</internalNodes>
          <leafValues>
            -9.2331737279891968e-01 2.2759023308753967e-01</leafValues></_>
        <_>
          <internalNodes>
            0 -1 89 1.9987276755273342e-03</internalNodes>
          <leafValues>
            -3.8040736317634583e-01 4.9659028649330139e-01</leafValues></_></weakClassifiers></_>
    <!-- stage 11 -->
    <_>
      <maxWeakCount>6</maxWeakCount>
      <stageThreshold>-1.1081457138061523e+00</stageThreshold>
      <weakClassifiers>
        <_>
          <internalNodes>
            0 -1 8 -7.0043325424194336e-02</internalNodes>
          <leafValues>
            1.9354838132858276e-01 -6.4251208305358887e-01</leafValues></_>
        <_>
          <internalNodes>
            0 -1 95 1.9335875287652016e-02</internalNodes>
          <leafValues>
            -3.7100291252136230e-01 5.5114567279815674e-01</leafValues></_>
        <_>
          <internalNodes>
            0 -1 11 -8.5810804739594460e-04</internalNodes>
          <leafValues>
            -8.5127365589141846e-01 1.9552975893020630e-01</leafValues></_>
        <_>
          <internalNodes>
            0 -1 46 4.9829808995127678e-04</internalNodes>
          <leafValues>
            -3.7650805711746216e-01 4.9233710765838623e-01</leafValues></_>
        <_>
          <internalNodes>
            0 -1 121 -3.0756383785046637e-04</internalNodes>
          <leafValues>
            -8.7688148021697998e-01 1.8946552276611328e-01</leafValues></_>
        <_>
          <internalNodes>
            0 -1 93 -4.2764644604176283e-04</internalNodes>
          <leafValues>
            -6.9103002548217773e-01 2.1903868019580841e-01</leafValues></_></weakClassifiers></_>
    <!-- stage 12 -->
    <_>
      <maxWeakCount>6</maxWeakCount>
      <stageThreshold>-1.3239613771438599e+00</stageThreshold>
      <weakClassifiers>
        <_>
          <internalNodes>
            0 -1 106 6.6827246919274330e-03</internalNodes>
          <leafValues>
            -5.7327586412429810e-01 3.2432430982589722e-01</leafValues></_>
        <_>
          <internalNodes>
            0 -1 118 8.9671358000487089e-04</internalNodes>
          <leafValues>
            1.5810759365558624e-01 -8.4991157054901123e-01</leafValues></_>
        <_>
          <internalNodes>
            0 -1 73 -2.2709225304424763e-03</internalNodes>
          <leafValues>
            -9.8061358928680420e-01 1.2033839523792267e-01</leafValues></_>
        <_>
          <internalNodes>
            0 -1 36 6.0279909521341324e-03</internalNodes>
          <leafValues>
            1.2350891530513763e-01 -9.5248204469680786e-01</leafValues></_>
        <_>
          <internalNodes>
            0 -1 116 -4.4645456364378333e-04</internalNodes>
          <leafValues>
            4.7748848795890808e-01 -3.6718422174453735e-01</leafValues></_>
        <_>
          <internalNodes>
            0 -1 119 -2.6140816044062376e-04</internalNodes>
          <leafValues>
            -7.9576468467712402e-01 2.2256299853324890e-01</leafValues></_></weakClassifiers></_>
    <!-- stage 13 -->
    <_>
      <maxWeakCount>8</maxWeakCount>
      <stageThreshold>-1.1223461627960205e+00</stageThreshold>
      <weakClassifiers>
        <_>
          <internalNodes>
            0 -1 21 3.9005309808999300e-03</internalNodes>
          <leafValues>
            -6.0178971290588379e-01 2.9670330882072449e-01</leafValues></_>
        <_>
          <internalNodes>
            0 -1 13 5.2802311256527901e-04</internalNodes>
          <leafValues>
            1.5104873478412628e-01 -8.2707071304321289e-01</leafValues></_>
        <_>
          <internalNodes>
            0 -1 58 2.0954357751179487e-04</internalNodes>
          <leafValues>
            -4.3140760064125061e-01 3.9349886775016785e-01</leafValues></_>
        <_>
          <internalNodes>
            0 -1 12 -6.8900967016816139e-04</internalNodes>
          <leafValues>
            -7.3843342065811157e-01 2.5686302781105042e-01</leafValues></_>
        <_>
          <internalNodes>
            0 -1 18 -4.2878668755292892e-03</internalNodes>
          <leafValues>
            4.1931360960006714e-01 -4.4321361184120178e-01</leafValues></_>
        <_>
          <internalNodes>
            0 -1 30 -3.8914720062166452e-03</internalNodes>
          <leafValues>
            2.1224309504032135e-01 -7.8117442131042480e-01</leafValues></_>
        <_>
          <internalNodes>
            0 -1 105 -1.1651471722871065e-03</internalNodes>
          <leafValues>
            6.4923667907714844e-01 -3.2351303100585938e-01</leafValues></_>
        <_>
          <internalNodes>
            0 -1 100 -2.1458891569636762e-04</internalNodes>
          <leafValues>
            -8.6039400100708008e-01 1.9019217789173126e-01</leafValues></_></weakClassifiers></_>
    <!-- stage 14 -->
    <_>
      <maxWeakCount>6</maxWeakCount>
      <stageThreshold>-1.1317902803421021e+00</stageThreshold>
      <weakClassifiers>
        <_>
          <internalNodes>
            0 -1 47 4.7973421169444919e-04</internalNodes>
          <leafValues>
            -6.8253970146179199e-01 1.0000000149011612e-01</leafValues></_>
        <_>
          <internalNodes>
            0 -1 109 1.1950373882427812e-03</internalNodes>
          <leafValues>
            -4.2419254779815674e-01 4.5139998197555542e-01</leafValues></_>
        <_>
          <internalNodes>
            0 -1 50 -3.0821580439805984e-02</internalNodes>
          <leafValues>
            5.7340848445892334e-01 -2.9573908448219299e-01</leafValues></_>
        <_>
          <internalNodes>
            0 -1 6 -1.0804501362144947e-03</internalNodes>
          <leafValues>
            4.7929751873016357e-01 -3.1177344918251038e-01</leafValues></_>
        <_>
          <internalNodes>
            0 -1 66 -4.0499991737306118e-03</internalNodes>
          <leafValues>
            -9.2822957038879395e-01 1.9184181094169617e-01</leafValues></_>
        <_>
          <internalNodes>
            0 -1 62 1.7867318820208311e-04</internalNodes>
          <leafValues>
            -3.9192703366279602e-01 4.2613098025321960e-01</leafValues></_></weakClassifiers></_>
    <!-- stage 15 -->
    <_>
      <maxWeakCount>8</maxWeakCount>
      <stageThreshold>-1.1636759042739868e+00</stageThreshold>
      <weakClassifiers>
        <_>
          <internalNodes>
            0 -1 40 4.0967873064801097e-04</internalNodes>
          <leafValues>
            -6.1200922727584839e-01 2.1904762089252472e-01</leafValues></_>
        <_>
          <internalNodes>
            0 -1 17 -6.3108815811574459e-04</internalNodes>
          <leafValues>
            -7.0725512504577637e-01 1.7537051439285278e-01</leafValues></_>
        <_>
          <internalNodes>
            0 -1 96 -1.9993823661934584e-04</internalNodes>
          <leafValues>
            4.2272162437438965e-01 -3.8879910111427307e-01</leafValues></_>
        <_>
          <internalNodes>
            0 -1 69 4.2378753423690796e-03</internalNodes>
          <leafValues>
            2.5190544128417969e-01 -7.9624378681182861e-01</leafValues></_>
        <_>
          <internalNodes>
            0 -1 107 -4.7790876124054193e-04</internalNodes>
          <leafValues>
            4.9105447530746460e-01 -3.1333771347999573e-01</leafValues></_>
        <_>
          <internalNodes>
            0 -1 115 -4.1071851737797260e-03</internalNodes>
          <leafValues>
            6.9015175104141235e-01 -2.4971632659435272e-01</leafValues></_>
        <_>
          <internalNodes>
            0 -1 16 1.4803081750869751e-02</internalNodes>
          <leafValues>
            -2.2699117660522461e-01 7.6188093423843384e-01</leafValues></_>
        <_>
          <internalNodes>
            0 -1 78 6.6508993040770292e-04</internalNodes>
          <leafValues>
            -3.6786201596260071e-01 4.6290037035942078e-01</leafValues></_></weakClassifiers></_>
    <!-- stage 16 -->
    <_>
      <maxWeakCount>6</maxWeakCount>
      <stageThreshold>-1.0881941318511963e+00</stageThreshold>
      <weakClassifiers>
        <_>
          <internalNodes>
            0 -1 26 8.4464950487017632e-04</internalNodes>
          <leafValues>
            -2.4456521868705750e-01 -8.9411765336990356e-01</leafValues></_>
        <_>
          <internalNodes>
            0 -1 76 -6.8379903677850962e-04</internalNodes>
          <leafValues>
            -8.5043907165527344e-01 7.5076967477798462e-02</leafValues></_>
        <_>
          <internalNodes>
            0 -1 91 -3.1133231823332608e-04</internalNodes>
          <leafValues>
            4.2009845376014709e-01 -3.3708012104034424e-01</leafValues></_>
        <_>
          <internalNodes>
            0 -1 122 -9.5173867885023355e-04</internalNodes>
          <leafValues>
            -9.4233065843582153e-01 2.0420581102371216e-01</leafValues></_>
        <_>
          <internalNodes>
            0 -1 15 3.1386708724312484e-04</internalNodes>
          <leafValues>
            2.3392316699028015e-01 -5.7880520820617676e-01</leafValues></_>
        <_>
          <internalNodes>
            0 -1 35 -1.2045698240399361e-02</internalNodes>
          <leafValues>
            -7.3823165893554688e-01 1.8233150243759155e-01</leafValues></_></weakClassifiers></_>
    <!-- stage 17 -->
    <_>
      <maxWeakCount>8</maxWeakCount>
      <stageThreshold>-9.6052575111389160e-01</stageThreshold>
      <weakClassifiers>
        <_>
          <internalNodes>
            0 -1 31 3.6674842704087496e-03</internalNodes>
          <leafValues>
            -6.1395347118377686e-01 2.0370370149612427e-01</leafValues></_>
        <_>
          <internalNodes>
            0 -1 20 -1.1988354381173849e-03</internalNodes>
          <leafValues>
            4.3058231472969055e-01 -3.8441011309623718e-01</leafValues></_>
        <_>
          <internalNodes>
            0 -1 5 1.9450902473181486e-03</internalNodes>
          <leafValues>
            1.5905994176864624e-01 -9.2117649316787720e-01</leafValues></_>
        <_>
          <internalNodes>
            0 -1 110 8.4166566375643015e-04</internalNodes>
          <leafValues>
            2.2211460769176483e-01 -6.6823792457580566e-01</leafValues></_>
        <_>
          <internalNodes>
            0 -1 101 -2.6663386961445212e-04</internalNodes>
          <leafValues>
            5.6235265731811523e-01 -3.1316313147544861e-01</leafValues></_>
        <_>
          <internalNodes>
            0 -1 70 -2.8835132252424955e-04</internalNodes>
          <leafValues>
            3.9851984381675720e-01 -3.9618504047393799e-01</leafValues></_>
        <_>
          <internalNodes>
            0 -1 71 1.5117240836843848e-03</internalNodes>
          <leafValues>
            2.3376521468162537e-01 -7.7826160192489624e-01</leafValues></_>
        <_>
          <internalNodes>
            0 -1 24 -5.5613415315747261e-03</internalNodes>
          <leafValues>
            3.4145262837409973e-01 -4.1013008356094360e-01</leafValues></_></weakClassifiers></_>
    <!-- stage 18 -->
    <_>
      <maxWeakCount>8</maxWeakCount>
      <stageThreshold>-1.4771844148635864e+00</stageThreshold>
      <weakClassifiers>
        <_>
          <internalNodes>
            0 -1 28 1.6961295623332262e-03</internalNodes>
          <leafValues>
            -6.2980771064758301e-01 1.6393442451953888e-01</leafValues></_>
        <_>
          <internalNodes>
            0 -1 103 1.1903704144060612e-03</internalNodes>
          <leafValues>
            1.1796262860298157e-01 -7.7878534793853760e-01</leafValues></_>
        <_>
          <internalNodes>
            0 -1 86 -3.8825609954074025e-04</internalNodes>
          <leafValues>
            3.5203313827514648e-01 -3.9907211065292358e-01</leafValues></_>
        <_>
          <internalNodes>
            0 -1 19 1.2355373473837972e-03</internalNodes>
          <leafValues>
            2.0838186144828796e-01 -8.0541366338729858e-01</leafValues></_>
        <_>
          <internalNodes>
            0 -1 79 -9.3771272804588079e-04</internalNodes>
          <leafValues>
            3.9041200280189514e-01 -3.5339033603668213e-01</leafValues></_>
        <_>
          <internalNodes>
            0 -1 85 3.0863974243402481e-03</internalNodes>
          <leafValues>
            1.8533167243003845e-01 -8.6400252580642700e-01</leafValues></_>
        <_>
          <internalNodes>
            0 -1 88 4.0772208012640476e-04</internalNodes>
          <leafValues>
            -3.2192146778106689e-01 5.4818052053451538e-01</leafValues></_>
        <_>
          <internalNodes>
            0 -1 84 1.3672336935997009e-03</internalNodes>
          <leafValues>
            -2.8466898202896118e-01 6.6327029466629028e-01</leafValues></_></weakClassifiers></_>
    <!-- stage 19 -->
    <_>
      <maxWeakCount>8</maxWeakCount>
      <stageThreshold>-1.0172789096832275e+00</stageThreshold>
      <weakClassifiers>
        <_>
          <internalNodes>
            0 -1 39 -7.2533134371042252e-03</internalNodes>
          <leafValues>
            5.0000000000000000e-01 -5.5144035816192627e-01</leafValues></_>
        <_>
          <internalNodes>
            0 -1 111 -1.0516801849007607e-03</internalNodes>
          <leafValues>
            -8.7251335382461548e-01 1.2658971548080444e-01</leafValues></_>
        <_>
          <internalNodes>
            0 -1 4 2.1549724042415619e-03</internalNodes>
          <leafValues>
            1.1026600748300552e-01 -8.6236780881881714e-01</leafValues></_>
        <_>
          <internalNodes>
            0 -1 51 -9.2692747712135315e-03</internalNodes>
          <leafValues>
            -8.7171983718872070e-01 1.4239273965358734e-01</leafValues></_>
        <_>
          <internalNodes>
            0 -1 38 8.1109913298860192e-04</internalNodes>
          <leafValues>
            -3.7071326375007629e-01 4.1771522164344788e-01</leafValues></_>
        <_>
          <internalNodes>
            0 -1 49 -6.0165636241436005e-03</internalNodes>
          <leafValues>
            7.6581311225891113e-01 -2.1193045377731323e-01</leafValues></_>
        <_>
          <internalNodes>
            0 -1 2 -1.8075876869261265e-04</internalNodes>
          <leafValues>
            -7.0518290996551514e-01 2.7532577514648438e-01</leafValues></_>
        <_>
          <internalNodes>
            0 -1 34 -2.0399759523570538e-03</internalNodes>
          <leafValues>
            5.6093055009841919e-01 -3.1208497285842896e-01</leafValues></_></weakClassifiers></_></stages>
  <features>
    <_>
      <rects>
        <_>
          0 0 3 2 -1.</_>
        <_>
          1 0 1 2 3.</_></rects>
      <tilted>0</tilted></_>
    <_>
      <rects>
        <_>
          0 0 2 3 -1.</_>
        <_>
          1 0 1 3 2.</_></rects>
      <tilted>0</tilted></_>
    <_>
      <rects>
        <_>
          0 1 2 2 -1.</_>
        <_>
          0 1 1 1 2.</_>
        <_>
          1 2 1 1 2.</_></rects>
      <tilted>0</tilted></_>
    <_>
      <rects>
        <_>
          0 2 3 3 -1.</_>
        <_>
          0 3 3 1 3.</_></rects>
      <tilted>0</tilted></_>
    <_>
      <rects>
        <_>
          0 4 1 6 -1.</_>
        <_>
          0 7 1 3 2.</_></rects>
      <tilted>0</tilted></_>
    <_>
      <rects>
        <_>
          0 9 1 6 -1.</_>
        <_>
          0 11 1 2 3.</_></rects>
      <tilted>0</tilted></_>
    <_>
      <rects>
        <_>
          0 9 3 4 -1.</_>
        <_>
          1 9 1 4 3.</_></rects>
      <tilted>0</tilted></_>
    <_>
      <rects>
        <_>
          0 9 6 9 -1.</_>
        <_>
          2 9 2 9 3.</_></rects>
      <tilted>0</tilted></_>
    <_>
      <rects>
        <_>
          0 10 10 11 -1.</_>
        <_>
          5 10 5 11 2.</_></rects>
      <tilted>0</tilted></_>
    <_>
      <rects>
        <_>
          0 12 24 7 -1.</_>
        <_>
          8 12 8 7 3.</_></rects>
      <tilted>0</tilted></_>
    <_>
      <rects>
        <_>
          0 13 20 6 -1.</_>
        <_>
          10 13 10 6 2.</_></rects>
      <tilted>0</tilted></_>
    <_>
      <rects>
        <_>
          0 17 2 6 -1.</_>
        <_>
          0 17 1 3 2.</_>
        <_>
          1 20 1 3 2.</_></rects>
      <tilted>0</tilted></_>
    <_>
      <rects>
        <_>
          0 18 3 6 -1.</_>
        <_>
          1 18 1 6 3.</_></rects>
      <tilted>0</tilted></_>
    <_>
      <rects>
        <_>
          0 19 2 5 -1.</_>
        <_>
          1 19 1 5 2.</_></rects>
      <tilted>0</tilted></_>
    <_>
      <rects>
        <_>
          0 19 2 2 -1.</_>
        <_>
          0 20 2 1 2.</_></rects>
      <tilted>0</tilted></_>
    <_>
      <rects>
        <_>
          0 20 3 3 -1.</_>
        <_>
          1 20 1 3 3.</_></rects>
      <tilted>0</tilted></_>
    <_>
      <rects>
        <_>
          0 20 14 4 -1.</_>
        <_>
          0 20 7 2 2.</_>
        <_>
          7 22 7 2 2.</_></rects>
      <tilted>0</tilted></_>
    <_>
      <rects>
        <_>
          0 21 6 3 -1.</_>
        <_>
          0 22 6 1 3.</_></rects>
      <tilted>0</tilted></_>
    <_>
      <rects>
        <_>
          0 21 17 3 -1.</_>
        <_>
          0 22 17 1 3.</_></rects>
      <tilted>0</tilted></_>
    <_>
      <rects>
        <_>
          1 1 1 6 -1.</_>
        <_>
          1 3 1 2 3.</_></rects>
      <tilted>0</tilted></_>
    <_>
      <rects>
        <_>
          1 6 3 3 -1.</_>
        <_>
          2 6 1 3 3.</_></rects>
      <tilted>0</tilted></_>
    <_>
      <rects>
        <_>
          1 7 2 4 -1.</_>
        <_>
          2 7 1 4 2.</_></rects>
      <tilted>0</tilted></_>
    <_>
      <rects>
        <_>
          1 8 2 2 -1.</_>
        <_>
          2 8 1 2 2.</_></rects>
      <tilted>0</tilted></_>
    <_>
      <rects>
        <_>
          1 8 21 2 -1.</_>
        <_>
          8 8 7 2 3.</_></rects>
      <tilted>0</tilted></_>
    <_>
      <rects>
        <_>
          1 18 10 6 -1.</_>
        <_>
          1 20 10 2 3.</_></rects>
      <tilted>0</tilted></_>
    <_>
      <rects>
        <_>
          1 19 16 4 -1.</_>
        <_>
          1 19 8 2 2.</_>
        <_>
          9 21 8 2 2.</_></rects>
      <tilted>0</tilted></_>
    <_>
      <rects>
        <_>
          2 0 1 4 -1.</_>
        <_>
          2 2 1 2 2.</_></rects>
      <tilted>0</tilted></_>
    <_>
      <rects>
        <_>
          2 0 1 6 -1.</_>
        <_>
          2 2 1 2 3.</_></rects>
      <tilted>0</tilted></_>
    <_>
      <rects>
        <_>
          2 4 2 4 -1.</_>
        <_>
          2 4 1 2 2.</_>
        <_>
          3 6 1 2 2.</_></rects>
      <tilted>0</tilted></_>
    <_>
      <rects>
        <_>
          2 5 3 1 -1.</_>
        <_>
          3 5 1 1 3.</_></rects>
      <tilted>0</tilted></_>
    <_>
      <rects>
        <_>
          2 6 21 12 -1.</_>
        <_>
          9 6 7 12 3.</_></rects>
      <tilted>0</tilted></_>
    <_>
      <rects>
        <_>
          2 8 2 10 -1.</_>
        <_>
          2 8 1 5 2.</_>
        <_>
          3 13 1 5 2.</_></rects>
      <tilted>0</tilted></_>
    <_>
      <rects>
        <_>
          2 15 2 8 -1.</_>
        <_>
          2 15 1 4 2.</_>
        <_>
          3 19 1 4 2.</_></rects>
      <tilted>0</tilted></_>
    <_>
      <rects>
        <_>
          2 15 15 9 -1.</_>
        <_>
          7 15 5 9 3.</_></rects>
      <tilted>0</tilted></_>
    <_>
      <rects>
        <_>
          2 16 2 6 -1.</_>
        <_>
          2 16 1 3 2.</_>
        <_>
          3 19 1 3 2.</_></rects>
      <tilted>0</tilted></_>
    <_>
      <rects>
        <_>
          2 17 22 4 -1.</_>
        <_>
          2 17 11 2 2.</_>
        <_>
          13 19 11 2 2.</_></rects>
      <tilted>0</tilted></_>
    <_>
      <rects>
        <_>
          2 23 15 1 -1.</_>
        <_>
          7 23 5 1 3.</_></rects>
      <tilted>0</tilted></_>
    <_>
      <rects>
        <_>
          3 3 4 2 -1.</_>
        <_>
          3 3 2 1 2.</_>
        <_>
          5 4 2 1 2.</_></rects>
      <tilted>0</tilted></_>
    <_>
      <rects>
        <_>
          3 5 1 4 -1.</_>
        <_>
          3 7 1 2 2.</_></rects>
      <tilted>0</tilted></_>
    <_>
      <rects>
        <_>
          3 9 4 4 -1.</_>
        <_>
          3 9 2 2 2.</_>
        <_>
          5 11 2 2 2.</_></rects>
      <tilted>0</tilted></_>
    <_>
      <rects>
        <_>
          3 19 2 1 -1.</_>
        <_>
          4 19 1 1 2.</_></rects>
      <tilted>0</tilted></_>
    <_>
      <rects>
        <_>
          3 20 6 2 -1.</_>
        <_>
          3 20 3 1 2.</_>
        <_>
          6 21 3 1 2.</_></rects>
      <tilted>0</tilted></_>
    <_>
      <rects>
        <_>
          3 21 12 2 -1.</_>
        <_>
          3 21 6 1 2.</_>
        <_>
          9 22 6 1 2.</_></rects>
      <tilted>0</tilted></_>
    <_>
      <rects>
        <_>
          4 1 8 2 -1.</_>
        <_>
          4 1 4 1 2.</_>
        <_>
          8 2 4 1 2.</_></rects>
      <tilted>0</tilted></_>
    <_>
      <rects>
        <_>
          4 2 1 3 -1.</_>
        <_>
          4 3 1 1 3.</_></rects>
      <tilted>0</tilted></_>
    <_>
      <rects>
        <_>
          4 22 2 2 -1.</_>
        <_>
          4 23 2 1 2.</_></rects>
      <tilted>0</tilted></_>
    <_>
      <rects>
        <_>
          5 2 2 2 -1.</_>
        <_>
          5 2 1 1 2.</_>
        <_>
          6 3 1 1 2.</_></rects>
      <tilted>0</tilted></_>
    <_>
      <rects>
        <_>
          5 3 2 2 -1.</_>
        <_>
          5 4 2 1 2.</_></rects>
      <tilted>0</tilted></_>
    <_>
      <rects>
        <_>
          5 23 12 1 -1.</_>
        <_>
          11 23 6 1 2.</_></rects>
      <tilted>0</tilted></_>
    <_>
      <rects>
        <_>
          6 1 9 2 -1.</_>
        <_>
          6 2 9 1 2.</_></rects>
      <tilted>0</tilted></_>
    <_>
      <rects>
        <_>
          6 6 11 12 -1.</_>
        <_>
          6 10 11 4 3.</_></rects>
      <tilted>0</tilted></_>
    <_>
      <rects>
        <_>
          6 16 6 8 -1.</_>
        <_>
          8 16 2 8 3.</_></rects>
      <tilted>0</tilted></_>
    <_>
      <rects>
        <_>
          7 0 10 3 -1.</_>
        <_>
          7 1 10 1 3.</_></rects>
      <tilted>0</tilted></_>
    <_>
      <rects>
        <_>
          7 0 11 3 -1.</_>
        <_>
          7 1 11 1 3.</_></rects>
      <tilted>0</tilted></_>
    <_>
      <rects>
        <_>
          7 21 10 2 -1.</_>
        <_>
          7 22 10 1 2.</_></rects>
      <tilted>0</tilted></_>
    <_>
      <rects>
        <_>
          7 21 10 3 -1.</_>
        <_>
          7 22 10 1 3.</_></rects>
      <tilted>0</tilted></_>
    <_>
      <rects>
        <_>
          8 1 12 2 -1.</_>
        <_>
          8 1 6 1 2.</_>
        <_>
          14 2 6 1 2.</_></rects>
      <tilted>0</tilted></_>
    <_>
      <rects>
        <_>
          8 1 16 4 -1.</_>
        <_>
          8 1 8 2 2.</_>
        <_>
          16 3 8 2 2.</_></rects>
      <tilted>0</tilted></_>
    <_>
      <rects>
        <_>
          8 2 1 2 -1.</_>
        <_>
          8 3 1 1 2.</_></rects>
      <tilted>0</tilted></_>
    <_>
      <rects>
        <_>
          8 21 9 3 -1.</_>
        <_>
          8 22 9 1 3.</_></rects>
      <tilted>0</tilted></_>
    <_>
      <rects>
        <_>
          9 1 3 12 -1.</_>
        <_>
          10 1 1 12 3.</_></rects>
      <tilted>0</tilted></_>
    <_>
      <rects>
        <_>
          9 1 3 15 -1.</_>
        <_>
          10 1 1 15 3.</_></rects>
      <tilted>0</tilted></_>
    <_>
      <rects>
        <_>
          9 2 1 2 -1.</_>
        <_>
          9 3 1 1 2.</_></rects>
      <tilted>0</tilted></_>
    <_>
      <rects>
        <_>
          9 3 3 17 -1.</_>
        <_>
          10 3 1 17 3.</_></rects>
      <tilted>0</tilted></_>
    <_>
      <rects>
        <_>
          9 21 1 3 -1.</_>
        <_>
          9 22 1 1 3.</_></rects>
      <tilted>0</tilted></_>
    <_>
      <rects>
        <_>
          10 0 8 3 -1.</_>
        <_>
          10 1 8 1 3.</_></rects>
      <tilted>0</tilted></_>
    <_>
      <rects>
        <_>
          10 16 4 8 -1.</_>
        <_>
          10 16 2 4 2.</_>
        <_>
          12 20 2 4 2.</_></rects>
      <tilted>0</tilted></_>
    <_>
      <rects>
        <_>
          11 3 6 20 -1.</_>
        <_>
          13 3 2 20 3.</_></rects>
      <tilted>0</tilted></_>
    <_>
      <rects>
        <_>
          11 6 6 16 -1.</_>
        <_>
          13 6 2 16 3.</_></rects>
      <tilted>0</tilted></_>
    <_>
      <rects>
        <_>
          11 14 4 10 -1.</_>
        <_>
          11 14 2 5 2.</_>
        <_>
          13 19 2 5 2.</_></rects>
      <tilted>0</tilted></_>
    <_>
      <rects>
        <_>
          12 0 1 3 -1.</_>
        <_>
          12 1 1 1 3.</_></rects>
      <tilted>0</tilted></_>
    <_>
      <rects>
        <_>
          12 0 2 8 -1.</_>
        <_>
          12 0 1 4 2.</_>
        <_>
          13 4 1 4 2.</_></rects>
      <tilted>0</tilted></_>
    <_>
      <rects>
        <_>
          12 1 3 11 -1.</_>
        <_>
          13 1 1 11 3.</_></rects>
      <tilted>0</tilted></_>
    <_>
      <rects>
        <_>
          12 4 3 8 -1.</_>
        <_>
          13 4 1 8 3.</_></rects>
      <tilted>0</tilted></_>
    <_>
      <rects>
        <_>
          12 9 3 13 -1.</_>
        <_>
          13 9 1 13 3.</_></rects>
      <tilted>0</tilted></_>
    <_>
      <rects>
        <_>
          12 9 6 13 -1.</_>
        <_>
          14 9 2 13 3.</_></rects>
      <tilted>0</tilted></_>
    <_>
      <rects>
        <_>
          12 18 3 2 -1.</_>
        <_>
          13 18 1 2 3.</_></rects>
      <tilted>0</tilted></_>
    <_>
      <rects>
        <_>
          12 20 12 2 -1.</_>
        <_>
          12 20 6 1 2.</_>
        <_>
          18 21 6 1 2.</_></rects>
      <tilted>0</tilted></_>
    <_>
      <rects>
        <_>
          12 21 6 2 -1.</_>
        <_>
          12 21 3 1 2.</_>
        <_>
          15 22 3 1 2.</_></rects>
      <tilted>0</tilted></_>
    <_>
      <rects>
        <_>
          13 1 4 2 -1.</_>
        <_>
          13 1 2 1 2.</_>
        <_>
          15 2 2 1 2.</_></rects>
      <tilted>0</tilted></_>
    <_>
      <rects>
        <_>
          13 2 10 7 -1.</_>
        <_>
          18 2 5 7 2.</_></rects>
      <tilted>0</tilted></_>
    <_>
      <rects>
        <_>
          13 20 6 4 -1.</_>
        <_>
          13 20 3 2 2.</_>
        <_>
          16 22 3 2 2.</_></rects>
      <tilted>0</tilted></_>
    <_>
      <rects>
        <_>
          15 19 6 4 -1.</_>
        <_>
          15 19 3 2 2.</_>
        <_>
          18 21 3 2 2.</_></rects>
      <tilted>0</tilted></_>
    <_>
      <rects>
        <_>
          16 2 4 2 -1.</_>
        <_>
          16 2 2 1 2.</_>
        <_>
          18 3 2 1 2.</_></rects>
      <tilted>0</tilted></_>
    <_>
      <rects>
        <_>
          16 2 6 2 -1.</_>
        <_>
          16 2 3 1 2.</_>
        <_>
          19 3 3 1 2.</_></rects>
      <tilted>0</tilted></_>
    <_>
      <rects>
        <_>
          16 8 2 16 -1.</_>
        <_>
          16 8 1 8 2.</_>
        <_>
          17 16 1 8 2.</_></rects>
      <tilted>0</tilted></_>
    <_>
      <rects>
        <_>
          16 21 3 3 -1.</_>
        <_>
          17 21 1 3 3.</_></rects>
      <tilted>0</tilted></_>
    <_>
      <rects>
        <_>
          17 0 1 2 -1.</_>
        <_>
          17 1 1 1 2.</_></rects>
      <tilted>0</tilted></_>
    <_>
      <rects>
        <_>
          17 2 1 2 -1.</_>
        <_>
          17 3 1 1 2.</_></rects>
      <tilted>0</tilted></_>
    <_>
      <rects>
        <_>
          17 17 4 4 -1.</_>
        <_>
          17 17 2 2 2.</_>
        <_>
          19 19 2 2 2.</_></rects>
      <tilted>0</tilted></_>
    <_>
      <rects>
        <_>
          17 19 2 4 -1.</_>
        <_>
          17 19 1 2 2.</_>
        <_>
          18 21 1 2 2.</_></rects>
      <tilted>0</tilted></_>
    <_>
      <rects>
        <_>
          17 20 2 1 -1.</_>
        <_>
          18 20 1 1 2.</_></rects>
      <tilted>0</tilted></_>
    <_>
      <rects>
        <_>
          17 20 1 3 -1.</_>
        <_>
          17 21 1 1 3.</_></rects>
      <tilted>0</tilted></_>
    <_>
      <rects>
        <_>
          17 22 3 2 -1.</_>
        <_>
          18 22 1 2 3.</_></rects>
      <tilted>0</tilted></_>
    <_>
      <rects>
        <_>
          18 2 4 16 -1.</_>
        <_>
          20 2 2 16 2.</_></rects>
      <tilted>0</tilted></_>
    <_>
      <rects>
        <_>
          18 6 6 10 -1.</_>
        <_>
          20 6 2 10 3.</_></rects>
      <tilted>0</tilted></_>
    <_>
      <rects>
        <_>
          18 18 2 2 -1.</_>
        <_>
          19 18 1 2 2.</_></rects>
      <tilted>0</tilted></_>
    <_>
      <rects>
        <_>
          18 19 1 2 -1.</_>
        <_>
          18 20 1 1 2.</_></rects>
      <tilted>0</tilted></_>
    <_>
      <rects>
        <_>
          18 22 2 1 -1.</_>
        <_>
          19 22 1 1 2.</_></rects>
      <tilted>0</tilted></_>
    <_>
      <rects>
        <_>
          18 23 6 1 -1.</_>
        <_>
          20 23 2 1 3.</_></rects>
      <tilted>0</tilted></_>
    <_>
      <rects>
        <_>
          19 0 2 2 -1.</_>
        <_>
          19 0 1 1 2.</_>
        <_>
          20 1 1 1 2.</_></rects>
      <tilted>0</tilted></_>
    <_>
      <rects>
        <_>
          19 4 2 1 -1.</_>
        <_>
          20 4 1 1 2.</_></rects>
      <tilted>0</tilted></_>
    <_>
      <rects>
        <_>
          19 17 3 6 -1.</_>
        <_>
          19 19 3 2 3.</_></rects>
      <tilted>0</tilted></_>
    <_>
      <rects>
        <_>
          19 21 5 3 -1.</_>
        <_>
          19 22 5 1 3.</_></rects>
      <tilted>0</tilted></_>
    <_>
      <rects>
        <_>
          20 0 4 4 -1.</_>
        <_>
          20 0 2 2 2.</_>
        <_>
          22 2 2 2 2.</_></rects>
      <tilted>0</tilted></_>
    <_>
      <rects>
        <_>
          20 4 2 4 -1.</_>
        <_>
          20 4 1 2 2.</_>
        <_>
          21 6 1 2 2.</_></rects>
      <tilted>0</tilted></_>
    <_>
      <rects>
        <_>
          20 5 2 12 -1.</_>
        <_>
          20 5 1 6 2.</_>
        <_>
          21 11 1 6 2.</_></rects>
      <tilted>0</tilted></_>
    <_>
      <rects>
        <_>
          20 11 3 1 -1.</_>
        <_>
          21 11 1 1 3.</_></rects>
      <tilted>0</tilted></_>
    <_>
      <rects>
        <_>
          20 12 4 3 -1.</_>
        <_>
          20 13 4 1 3.</_></rects>
      <tilted>0</tilted></_>
    <_>
      <rects>
        <_>
          20 16 2 4 -1.</_>
        <_>
          20 16 1 2 2.</_>
        <_>
          21 18 1 2 2.</_></rects>
      <tilted>0</tilted></_>
    <_>
      <rects>
        <_>
          20 20 4 4 -1.</_>
        <_>
          20 20 2 2 2.</_>
        <_>
          22 22 2 2 2.</_></rects>
      <tilted>0</tilted></_>
    <_>
      <rects>
        <_>
          21 1 3 5 -1.</_>
        <_>
          22 1 1 5 3.</_></rects>
      <tilted>0</tilted></_>
    <_>
      <rects>
        <_>
          21 3 2 2 -1.</_>
        <_>
          21 4 2 1 2.</_></rects>
      <tilted>0</tilted></_>
    <_>
      <rects>
        <_>
          21 6 3 14 -1.</_>
        <_>
          22 6 1 14 3.</_></rects>
      <tilted>0</tilted></_>
    <_>
      <rects>
        <_>
          21 11 3 4 -1.</_>
        <_>
          22 11 1 4 3.</_></rects>
      <tilted>0</tilted></_>
    <_>
      <rects>
        <_>
          21 13 2 5 -1.</_>
        <_>
          22 13 1 5 2.</_></rects>
      <tilted>0</tilted></_>
    <_>
      <rects>
        <_>
          21 15 3 1 -1.</_>
        <_>
          22 15 1 1 3.</_></rects>
      <tilted>0</tilted></_>
    <_>
      <rects>
        <_>
          21 19 2 2 -1.</_>
        <_>
          21 20 2 1 2.</_></rects>
      <tilted>0</tilted></_>
    <_>
      <rects>
        <_>
          21 21 3 3 -1.</_>
        <_>
          22 21 1 3 3.</_></rects>
      <tilted>0</tilted></_>
    <_>
      <rects>
        <_>
          21 22 2 2 -1.</_>
        <_>
          22 22 1 2 2.</_></rects>
      <tilted>0</tilted></_>
    <_>
      <rects>
        <_>
          22 0 2 4 -1.</_>
        <_>
          22 2 2 2 2.</_></rects>
      <tilted>0</tilted></_>
    <_>
      <rects>
        <_>
          22 5 2 2 -1.</_>
        <_>
          23 5 1 2 2.</_></rects>
      <tilted>0</tilted></_>
    <_>
      <rects>
        <_>
          22 15 2 3 -1.</_>
        <_>
          22 16 2 1 3.</_></rects>
      <tilted>0</tilted></_>
    <_>
      <rects>
        <_>
          23 14 1 9 -1.</_>
        <_>
          23 17 1 3 3.</_></rects>
      <tilted>0</tilted></_>
    <_>
      <rects>
        <_>
          23 16 1 6 -1.</_>
        <_>
          23 18 1 2 3.</_></rects>
      <tilted>0</tilted></_>
    <_>
      <rects>
        <_>
          23 17 1 4 -1.</_>
        <_>
          23 19 1 2 2.</_></rects>
      <tilted>0</tilted></_></features></cascade>
</opencv_storage>
